svm_type c_svc
kernel_type rbf
gamma 0.5
nr_class 2
total_sv 1731
rho 4.2890434313206445
label 0 1
nr_sv 814 917
SV
0.8238874800082274 1:0.41665092767183626 2:-0.8200084069831817 3:0.060961450847258354 4:0.023215884808649768 5:0.053416373900809486 6:0.026279964362368992 7:0.19710815389328054 0:0.0 0:0.0 
0.8238874800082274 1:0.40650572641395516 2:-1.000962406362775 3:-0.1387435799680306 4:0.08450734239412767 5:0.043577151774511935 6:0.053188033529008076 7:0.19710815389328054 0:0.0 0:0.0 
0.8238874800082274 1:-0.38481997170077126 2:0.7816588106659453 3:-0.18123401205638995 4:-0.23669092900318686 5:0.1490334299486755 6:0.06299564752432513 7:0.16089881288502259 0:0.0 0:0.0 
0.8238874800082274 1:-0.9174430377395294 2:-0.05730973191216878 3:-0.10050219108850718 4:-0.23669092900318686 5:0.20050013030161654 6:0.03281837369258036 7:0.1520979313899599 0:0.0 0:0.0 
0.8238874800082274 1:-0.8159910251607183 2:-0.6809280603525851 3:-0.002774197285280675 4:0.013905789985539202 5:0.22825178245271222 6:0.019238600468295217 7:0.13374180712882913 0:0.0 0:0.0 
0.8238874800082274 1:-0.46090898113487955 2:-0.22330885530997746 3:0.5835937655340784 4:-0.10247039530334288 5:-0.11536412872721782 6:0.08160496638723438 7:0.017318717636999773 0:0.0 0:0.0 
0.8238874800082274 1:-0.33916656604030626 2:-0.06329168230488261 3:0.9065210494056094 4:-0.142814139536822 5:-0.12242818563840581 6:0.1376844002578934 7:0.031148674272098293 0:0.0 0:0.0 
0.8238874800082274 1:0.2796907106904413 2:0.5782724973136752 3:0.7323102778433361 4:-0.20565727959281832 5:-0.11536412872721782 6:0.16685576496191334 7:0.06358620892532936 0:0.0 0:0.0 
0.8238874800082274 1:-0.00437492453022971 2:0.09373451550385534 3:-0.831337623008288 4:0.29010526973781936 5:-0.06339285288062046 6:0.08160496638723438 7:0.09753246612057119 0:0.0 0:0.0 
0.8238874800082274 1:-0.0500283301906947 2:0.023446598389467874 3:-0.24072061698009303 4:0.8719861961822297 5:-0.04093924341291579 6:0.06802519316294925 7:0.1317301770728148 0:0.0 0:0.0 
0.06230021689174948 1:-0.04495572956175414 2:-0.03039095514495656 3:-0.3511957404098273 4:0.6888876646610553 5:-0.02050393591983625 6:0.1218413314962274 7:0.17699185333313724 0:0.0 0:0.0 
0.8238874800082274 1:-0.26307755660619797 2:0.07279768912935694 3:-0.10900027750617905 4:-0.043506461423642624 5:-0.12015759591695252 6:-0.3298118668522192 7:-0.16045908856326666 0:0.0 0:0.0 
0.8238874800082274 1:-0.21235155031679243 2:-0.084228508679381 3:-0.33844861078331956 4:-0.4066001595249547 5:-0.11536412872721782 6:-0.27096618288031693 7:-0.13858261170411082 0:0.0 0:0.0 
0.8238874800082274 1:0.15287569496692746 2:0.4571380018612203 3:-0.7591038884580771 4:0.12950613403916209 5:-0.013187591261820118 6:-0.06324594800514047 7:-0.016124632044238467 0:0.0 0:0.0 
0.8238874800082274 1:0.5028851383638258 2:0.4526515390666849 3:-0.8695790118878114 4:-0.06290249230512297 5:0.0069954284844312795 6:-0.03759526524815742 7:-0.002043221652138157 0:0.0 0:0.0 
0.8238874800082274 1:0.06664148427493805 2:-0.025904492350421193 3:0.745057407469844 4:0.39561967773307244 5:0.04105427430623051 6:0.03633905563961725 7:-0.002043221652138157 0:0.0 0:0.0 
0.8238874800082274 1:-0.5775787956005123 2:-0.21433592972090673 3:-0.42342947496003824 4:0.2195037173292309 5:0.07788828534313931 6:0.04136860127824137 7:0.025113784104055303 0:0.0 0:0.0 
0.8238874800082274 1:0.1934564999984519 2:0.03391501157671707 3:-0.8695790118878114 4:0.3133805067955958 5:-0.15547788047289246 6:-0.010687196081518344 7:-0.0010374066241309915 0:0.0 0:0.0 
0.8238874800082274 1:-0.2478597547193763 2:-0.08721948387573791 3:0.29040978412439883 4:-0.3608255266446611 5:-0.15699160695386133 6:-0.08537594881508664 7:-0.2859345133071605 0:0.0 0:0.0 
0.8238874800082274 1:-0.410182974845474 2:0.18196828379638427 3:-0.49991225271908507 4:0.021664202338131343 5:0.026169297243370106 6:-0.0016340139319949148 7:0.259217231872723 0:0.0 0:0.0 
0.8238874800082274 1:0.2999811132062035 2:-0.04534583112674113 3:-0.6698739810725225 4:-0.30030991029444243 5:-0.11536412872721782 6:0.026782918926231407 7:0.14505722619390973 0:0.0 0:0.0 
0.8238874800082274 1:0.10722228930646249 2:-0.27265994604986654 3:-0.6826211106990303 4:7.164889861325677E-4 5:-0.06642030584255817 6:0.0031440544246980062 7:0.12443801811976285 0:0.0 0:0.0 
0.8238874800082274 1:6.976760987108447E-4 2:-0.025904492350421193 3:-0.5126593823455928 4:-0.7844348410961919 5:-0.026306554096883525 6:0.04916439701810877 7:-0.11243142097592453 0:0.0 0:0.0 
0.8238874800082274 1:0.2746181100615008 2:0.3928320351395466 3:0.41363203718064095 4:0.11321346809871859 5:0.7204651765144181 6:0.06249269296046271 7:0.01480418006698186 0:0.0 0:0.0 
0.8238874800082274 1:-0.4811993836506418 2:-0.14703898780287616 3:-0.12174740713268685 4:0.34441415620596433 5:0.7154194215778553 6:0.016723827648983152 7:0.21772736196742742 0:0.0 0:0.0 
0.8238874800082274 1:-0.38481997170077126 2:0.12513975506560293 3:-0.2534677466066008 4:0.12950613403916209 5:0.7028050342364481 6:-0.025272878433528313 7:0.23105441108852234 0:0.0 0:0.0 
0.8238874800082274 1:0.2999811132062035 2:-0.4162267554749984 3:0.07370858047376616 4:0.054249534219018326 5:0.541340876266437 6:-0.18923606625267486 7:0.29743820293699524 0:0.0 0:0.0 
0.8238874800082274 1:0.2391099056589169 2:-0.28611933443347265 3:0.039716234803078676 4:0.016233313691316843 5:0.43840747556055487 6:-0.19124788450812452 7:0.2853684226009093 0:0.0 0:0.0 
0.8238874800082274 1:0.44201393081653906 2:0.10270744109292607 3:0.018471018758899 4:0.0014923302213917817 5:0.373064949132066 6:-0.130893336844635 7:0.282099523759886 0:0.0 0:0.0 
0.8238874800082274 1:-0.35945696855606846 2:-0.09918338466116557 3:-0.5593988576427882 4:-0.3941866997608073 5:-0.18095894290253486 6:-0.02175219648649142 7:0.1287127319887933 0:0.0 0:0.0 
0.8238874800082274 1:-0.05510093081963525 2:-0.055814244313990326 3:-1.1585139500886552 4:-0.2778105144719252 5:-0.00940327505939798 6:-0.002388445777788534 7:0.058054226271289956 0:0.0 0:0.0 
0.8238874800082274 1:-0.08553653459327856 2:-4.812031813874319E-4 3:0.15868944465048487 4:0.030198455925982696 5:-0.029586294805649376 6:0.34842236251624437 7:-0.01662753955824205 0:0.0 0:0.0 
0.8238874800082274 1:-0.12104473899586245 2:0.02045562319311096 3:0.13319518539746925 4:0.0038198539271694235 5:-0.0010777794140692796 6:0.37910259091185156 7:-0.029954588679336987 0:0.0 0:0.0 
0.8238874800082274 1:-0.01959272641705137 2:0.014473672800397134 3:0.04396527801191461 4:0.023991726043908982 5:-0.016971907464242254 6:0.3811144091673012 7:-0.031211857464345943 0:0.0 0:0.0 
0.8238874800082274 1:0.10722228930646249 2:-0.012445103966815084 3:0.03546719159424275 4:0.13028197527442129 5:-0.018233346198382967 6:0.3811144091673012 7:-0.03045749619334057 0:0.0 0:0.0 
0.8238874800082274 1:-0.03988312893281359 2:-0.02141802955588582 3:0.1969308335300083 4:0.0472669631016854 5:-0.019747072679351822 6:0.36074474933087347 7:-0.03322348752036028 0:0.0 0:0.0 
0.8238874800082274 1:-0.29351316037984126 2:-0.03487741793949193 3:0.04396527801191461 4:-0.020231224365866208 5:-0.08937849080391914 6:-0.3418827763849171 7:-0.007323750549175773 0:0.0 0:0.0 
0.8238874800082274 1:-0.32902136478242516 2:-0.14105703741016234 3:0.060961450847258354 4:-0.0023868759549042877 5:-0.05935624893137019 6:-0.35093595853444054 7:-0.017381900829247423 0:0.0 0:0.0 
0.8238874800082274 1:-0.30365836163772236 2:0.2148690109563103 3:0.15444040144164892 4:-0.04273062018838341 5:-0.09846084968973227 6:-0.30768186604227304 7:-0.05660868692152687 0:0.0 0:0.0 
0.8238874800082274 1:-0.47105418239276065 2:0.3599313079796206 3:-0.2704639194419446 4:-0.04816150883519791 5:-0.0659157303489019 6:-0.002388445777788534 7:0.0067576598429245375 0:0.0 0:0.0 
0.8238874800082274 1:0.8630397830186051 2:0.3494628947923714 3:0.022720061967734937 4:-0.029541319188976775 5:0.03298106640772995 6:0.03633905563961725 7:-0.009586834362191893 0:0.0 0:0.0 
0.8238874800082274 1:0.5739015471689934 2:-0.20685849173001444 3:0.15444040144164892 4:0.004595695162428637 5:-0.014953605489617114 6:0.007167690935597308 7:0.008769289898938869 0:0.0 0:0.0 
0.8238874800082274 1:0.04635108175917583 2:-0.06030070710852569 3:-0.6826211106990303 4:-0.02876547795371756 5:0.023394132028260538 6:0.15176712804604095 7:-0.008078111820181146 0:0.0 0:0.0 
0.8238874800082274 1:0.06664148427493805 2:-0.08273302108120253 3:-0.635881635401835 4:0.26139914403322845 5:0.09781901734256256 6:0.02728587349009382 7:-0.12098084871398543 0:0.0 0:0.0 
0.8238874800082274 1:-0.7906280220160156 2:-0.35491176394968166 3:-0.1259964503415228 4:0.08217981868835003 5:-0.08811705206977843 6:0.07682689803054146 7:0.03466902687012337 0:0.0 0:0.0 
0.8238874800082274 1:0.5079577389927663 2:0.19542767217999038 3:-0.053762715791311894 4:-0.033420525365272846 5:0.4449669569780866 6:0.04815848789038395 7:0.3650792635704771 0:0.0 0:0.0 
0.8238874800082274 1:-0.11089953773798134 2:0.056347325549393916 3:0.07370858047376616 4:7.164889861325677E-4 5:0.22497204174394636 6:-0.015716741720142473 7:-0.5861702991672993 0:0.0 0:0.0 
0.8238874800082274 1:-0.07539133333539746 2:0.012978185202218677 3:-0.01552132691178848 4:-0.013248653248533283 5:0.29687404958996694 6:-0.015213787156280058 7:-0.6148360274655036 0:0.0 0:0.0 
0.8238874800082274 1:-0.03988312893281359 2:0.05485183795121546 3:-0.21522635772707743 4:-0.04816150883519791 5:0.36978520842330015 6:-0.007166514134481455 7:-0.5871761141953065 0:0.0 0:0.0 
0.8238874800082274 1:0.026060679243413615 2:0.07279768912935694 3:-0.3851880860805148 4:0.006923218868206279 5:0.3135250408806244 6:-0.006412082288687836 7:-0.5157632472067978 0:0.0 0:0.0 
0.8238874800082274 1:0.036205880501294724 2:-0.11413826064295013 3:-0.18548305526522588 4:-5.93522491266462E-5 5:-0.8351410704279083 6:0.029046214463612264 7:-0.009838288119193685 0:0.0 0:0.0 
0.8238874800082274 1:-0.09060913522221913 2:-0.11413826064295013 3:0.00997293234122713 4:-0.061350809834604544 5:-0.8782822751355206 6:0.052182124401283246 7:0.020084708964019475 0:0.0 0:0.0 
0.8238874800082274 1:-0.10582693710904079 2:-0.09320143426845173 3:-0.13024549355035872 4:-0.04505814389416105 5:-0.8810574403506302 6:0.04891291973617757 7:0.08345105572847088 0:0.0 0:0.0 
0.8238874800082274 1:-0.16669814465632743 2:-0.054318756715811864 3:-0.19398114168289776 4:-0.017127859424829354 5:-0.8782822751355206 6:0.05670871547604496 7:0.1287127319887933 0:0.0 0:0.0 
0.8238874800082274 1:-0.17684334591420853 2:-4.812031813874319E-4 3:0.0014748459235552603 4:-0.02876547795371756 5:-0.7914952902266396 6:0.06525894306170597 7:0.15436101520297602 0:0.0 0:0.0 
0.8238874800082274 1:0.09200448741964083 2:-0.06927363269759643 3:-0.827088579799452 4:0.17295324321367805 5:0.06350788377393518 6:8.807588873171488E-4 7:0.23407185617254386 0:0.0 0:0.0 
0.8238874800082274 1:0.051423682388116385 2:-0.004967665975922801 3:-0.6783720674901943 4:0.36381018708744467 5:0.16543213349250474 6:0.008676554627184547 7:0.18277528974417842 0:0.0 0:0.0 
0.8238874800082274 1:0.18838389936951136 2:0.06681573873664311 3:-0.1259964503415228 4:-0.11410801383223108 5:1.0 6:-0.008675377826068692 7:0.012038188739962156 0:0.0 0:0.0 
0.8238874800082274 1:-0.3543843679271279 2:0.045878912362144725 3:-0.05801175900014783 4:0.10778257945190409 5:0.7154194215778553 6:0.010688372882634196 7:-0.08628023024773823 0:0.0 0:0.0 
0.8238874800082274 1:0.3456345188666685 2:0.015969160398575592 3:-0.4319275613777101 4:0.30407041197248524 5:0.4881081616856989 6:0.0187356459044328 7:-0.09382384295779196 0:0.0 0:0.0 
0.8238874800082274 1:-0.15148034276950575 2:0.1984186473763473 3:0.22667413599185982 4:-0.024886271777421493 5:-0.5500559165121073 6:0.033321328256442774 7:0.34093970289830516 0:0.0 0:0.0 
0.8238874800082274 1:0.015915477985532507 2:0.19692315977816882 3:0.2946588273332348 4:-0.029541319188976775 5:-0.7004194136216801 6:0.033069850974511567 7:0.41637582999884254 0:0.0 0:0.0 
0.8238874800082274 1:0.08693188679070027 2:0.1535540194309936 3:0.12044805577096145 4:-0.06290249230512297 5:-0.7662665155438254 6:0.035836101075754835 7:0.45308807852110405 0:0.0 0:0.0 
0.8238874800082274 1:-0.02973792767493248 2:0.08924805270931996 3:-0.11324932071501498 4:-0.11643553753800873 5:-0.8149580506816568 6:0.03080655543713071 7:0.47345583283824916 0:0.0 0:0.0 
0.8238874800082274 1:-0.060173531448575804 2:-0.10067887225934402 3:-0.3044562651126321 4:0.013129948750279988 5:-0.6406272176234105 6:0.035836101075754835 7:0.4797421767632939 0:0.0 0:0.0 
0.8238874800082274 1:-0.024665327045991926 2:-4.812031813874319E-4 3:-0.00702324049411661 4:-0.014024494483792498 5:0.6195500777831612 6:-0.014710832592417646 7:-0.43353786866721195 0:0.0 0:0.0 
0.8238874800082274 1:-0.07031873270645692 2:0.11766231707471064 3:0.05246336442958648 4:-0.014800335719051712 5:0.590789274644753 6:-0.015716741720142473 7:-0.4589346981243929 0:0.0 0:0.0 
0.8238874800082274 1:-0.21235155031679243 2:-0.0498322939212765 3:0.06945953726493022 4:-0.1699685827708945 5:0.04937976995155921 6:-0.011944582491174376 7:-0.5421658916919858 0:0.0 0:0.0 
0.8238874800082274 1:-0.15655294339844633 2:-0.03637290553767039 3:0.28616074091556293 4:-0.2374667702384461 5:-0.08155757065224672 6:-0.019740378231041772 7:-0.5509667731870486 0:0.0 0:0.0 
0.8238874800082274 1:-0.1362625408826841 2:-0.0498322939212765 3:0.26916456808021916 4:-0.1870370899465972 5:-0.27607142345674457 6:-0.02929651494442761 7:-0.496149854160658 0:0.0 0:0.0 
0.4365170795829832 1:-0.12104473899586245 2:-0.10516533505387939 3:0.09495379651794583 4:-0.003938558425422715 5:-0.40852249054151935 6:-0.02803912853477158 7:-0.4506367241433338 0:0.0 0:0.0 
0.8238874800082274 1:0.20867430188527358 2:-0.06927363269759643 3:-0.08775506146199938 4:0.18381502050730705 5:-0.5013643813742757 6:-0.027284696688977962 7:-0.43378932242421375 0:0.0 0:0.0 
0.8238874800082274 1:0.026060679243413615 2:-0.06329168230488261 3:-0.48291607988374136 4:0.4367392632018108 5:-0.6035409188396734 6:-0.025021401151597105 7:-0.43353786866721195 0:0.0 0:0.0 
0.8238874800082274 1:-0.11089953773798134 2:0.015969160398575592 3:-0.45317277742188977 4:0.47475548372951226 5:-0.7168181171655095 6:-0.023764014741941075 7:-0.4501338166293302 0:0.0 0:0.0 
0.8238874800082274 1:0.15287569496692746 2:0.21636449855448878 3:-0.062260802208983765 4:0.11243762686345937 5:-0.8618835715916914 6:-0.03005094679022123 7:-0.46597540332044307 0:0.0 0:0.0 
0.8238874800082274 1:0.3456345188666685 2:0.3374989940069438 3:0.11194996935328957 4:-0.0365238903063097 5:-0.9776836473858087 6:-0.03734378796622621 7:-0.3990887039579666 0:0.0 0:0.0 
0.8238874800082274 1:0.3101263144640847 2:0.24029230012534408 3:0.23942126561836763 4:-0.048937350070457124 5:-0.9928209121954973 6:-0.04513958370609361 7:-0.30378773005428766 0:0.0 0:0.0 
0.8238874800082274 1:0.09200448741964083 2:0.11467134187835372 3:0.09920283972678177 4:-0.10790128395015738 5:-0.8855986197935367 6:-0.04891174293506171 7:-0.23891266074782552 0:0.0 0:0.0 
0.8238874800082274 1:0.06664148427493805 2:-0.13357959941927006 3:-0.07500793183549156 4:-0.11798722000852715 5:-0.6595487986355211 6:-0.05042060662664895 7:-0.15140675331120218 0:0.0 0:0.0 
0.8238874800082274 1:-0.04495572956175414 2:0.048869887558501635 3:0.29040978412439883 4:-0.003162717190163502 5:-0.5293683212721996 6:-0.02803912853477158 7:0.39776825198071 0:0.0 0:0.0 
0.8238874800082274 1:-0.21235155031679243 2:0.06831122633482158 3:0.23092317920069574 4:-8.351934843858601E-4 5:-0.6683788697745061 6:-0.028542083098633993 7:0.47345583283824916 0:0.0 0:0.0 
0.8238874800082274 1:-0.11089953773798134 2:0.005500747211326394 3:-0.1259964503415228 4:-0.06212665106986376 5:-0.6201919101303309 6:-0.018734469103316945 7:0.5614646477888761 0:0.0 0:0.0 
0.8238874800082274 1:-0.08046393396433801 2:0.023446598389467874 3:-0.053762715791311894 4:-0.007817764601718786 5:-0.586889927549016 6:-0.021500719204560217 7:0.5614646477888761 0:0.0 0:0.0 
0.8238874800082274 1:-0.07031873270645692 2:-0.11413826064295013 3:-0.4191804317512023 4:0.07907645374731317 5:0.7239972049700122 6:-0.05016912934471774 7:-0.1471320394421717 0:0.0 0:0.0 
0.8238874800082274 1:0.13258529245116527 2:-0.10067887225934402 3:-0.2959581786949602 4:0.19390095656567682 5:1.0 6:-0.06576072082445254 7:-0.121483756227989 0:0.0 0:0.0 
0.8238874800082274 1:0.10722228930646249 2:-0.1186247234374855 3:-0.13449453675919465 4:0.1985560039772321 5:1.0 6:-0.08059788045839372 7:-0.08225697013570957 0:0.0 0:0.0 
0.8238874800082274 1:-0.10075433648010022 2:0.08326610231660614 3:-0.24496966018892896 4:0.013905789985539202 5:1.0 6:-0.09266878999109163 7:-0.08980058284576331 0:0.0 0:0.0 
0.8238874800082274 1:-0.10582693710904079 2:0.2866524156688762 3:-0.14299262317686653 4:-0.06212665106986376 5:1.0 6:-0.09694390378392213 7:-0.04428745282843909 0:0.0 0:0.0 
0.8238874800082274 1:-0.12104473899586245 2:0.21337352335813187 3:0.09920283972678177 4:0.046491121866426184 5:1.0 6:-0.09442913096461007 7:0.017318717636999773 0:0.0 0:0.0 
0.8238874800082274 1:-0.02973792767493248 2:0.03541049917489553 3:0.12894614218863332 4:0.08528318362938687 5:1.0 6:-0.05620458411106669 7:9.742234318833386E-4 0:0.0 0:0.0 
0.8238874800082274 1:0.1630208962248086 2:-0.08273302108120253 3:0.06521049405609429 4:0.020112519867612914 5:1.0 6:-0.015968219002073677 7:0.007763474870931703 0:0.0 0:0.0 
0.8238874800082274 1:0.24418250628785745 2:-0.016931566761350453 3:0.0057238891323911955 4:-0.027989636718458347 5:1.0 6:0.0033955317066292124 7:0.03718356444014128 0:0.0 0:0.0 
0.19794285695721534 1:0.13258529245116527 2:0.18495925899274118 3:0.1034518829356177 4:-0.041954778953124196 5:1.0 6:0.045895192353003086 7:0.1520979313899599 0:0.0 0:0.0 
0.8238874800082274 1:0.08693188679070027 2:0.19542767217999038 3:0.11194996935328957 4:-0.0023868759549042877 5:1.0 6:0.06525894306170597 7:0.21043520301437546 0:0.0 0:0.0 
0.8238874800082274 1:0.11229488993540304 2:0.12513975506560293 3:0.12894614218863332 4:-0.03807557277682813 5:1.0 6:0.06525894306170597 7:0.2237622521354704 0:0.0 0:0.0 
0.8238874800082274 1:0.12751269182222472 2:-0.0498322939212765 3:0.14169327181514113 4:-0.05514407995253084 5:1.0 6:0.05645723819411376 7:0.27983643994686985 0:0.0 0:0.0 
0.8238874800082274 1:0.031133279872354168 2:-0.22330885530997746 3:0.0907047533091099 4:-0.061350809834604544 5:1.0 6:0.038099396613135696 7:0.350746399421375 0:0.0 0:0.0 
0.8238874800082274 1:-0.10075433648010022 2:-0.3952899291005 3:0.0014748459235552603 4:-0.05514407995253084 5:1.0 6:0.02703439620816261 7:0.4141127461858264 0:0.0 0:0.0 
0.8238874800082274 1:-0.29351316037984126 2:-0.3833260283150723 3:0.08645571010027396 4:-0.03962725524734655 5:0.9871333249117648 6:0.008173600063322134 7:0.4797421767632939 0:0.0 0:0.0 
0.8238874800082274 1:-0.10075433648010022 2:-0.26518250805897425 3:0.039716234803078676 4:-0.013248653248533283 5:0.9588770972670128 6:-0.02803912853477158 7:0.5124311651735268 0:0.0 0:0.0 
0.8238874800082274 1:0.15287569496692746 2:-0.3354704251733617 3:0.05671240763842242 4:0.04804280433694461 5:0.9172496190403693 6:-0.045642538269956026 7:0.5287756593786431 0:0.0 0:0.0 
0.8238874800082274 1:0.010842877356591953 2:0.0877525651111415 3:0.07795762368260209 4:0.006147377632947065 5:0.7855554151960789 6:-0.024518446587734694 7:0.4633976825581775 0:0.0 0:0.0 
0.8238874800082274 1:0.026060679243413615 2:0.18495925899274118 3:-0.14299262317686653 4:0.006147377632947065 5:0.6092062801632073 6:0.023010759697263312 7:0.44428719702604136 0:0.0 0:0.0 
0.8238874800082274 1:-0.009447525159170264 2:-0.012445103966815084 3:-0.14724166638570246 4:0.03562934457279719 5:0.3740741001193786 6:0.07230030695577976 7:0.4405153906710145 0:0.0 0:0.0 
0.8238874800082274 1:0.1833112987405708 2:0.2672110768925563 3:0.014221975550063066 4:-0.13815909212526672 5:-0.7824129313408265 6:-0.11781651818421227 7:-0.004306305465154278 0:0.0 0:0.0 
0.8238874800082274 1:0.061568883645997496 2:0.2044005977690611 3:0.03546719159424275 4:-0.2041055971222999 5:-0.8810574403506302 6:-0.12435492751442363 7:0.06534638522434191 0:0.0 0:0.0 
0.8238874800082274 1:0.005770276727651399 2:0.12214877986924601 3:-0.10475123429734311 4:-0.28091387941296203 5:-0.8689476285028793 6:-0.12259458654090519 7:0.05126497483224159 0:0.0 0:0.0 
0.8238874800082274 1:-0.07031873270645692 2:0.1356081682528521 3:-0.3002072219037961 4:-0.08928109430393624 5:-0.8361502214152208 6:-0.11052367700820728 7:0.055539688701272044 0:0.0 0:0.0 
0.8238874800082274 1:-0.0500283301906947 2:-0.03039095514495656 3:0.022720061967734937 4:0.21096946374137956 5:-0.7793854783788887 6:-0.11479879080103779 7:0.07037546036437774 0:0.0 0:0.0 
0.8238874800082274 1:-0.2884405597509007 2:-0.2322817808990482 3:-0.07075888862665564 4:0.12717861033338443 5:-0.7824129313408265 6:-0.10172197214061506 7:0.11111096899866792 0:0.0 0:0.0 
0.8238874800082274 1:-0.26307755660619797 2:-0.1425525250083408 3:-0.33844861078331956 4:0.08993823104094216 5:-0.7824129313408265 6:-0.05092356119051136 7:0.14782321752092945 0:0.0 0:0.0 
0.8238874800082274 1:-0.3898925723297118 2:-0.051327781519454954 3:0.07795762368260209 4:-0.0023868759549042877 5:-0.6421409441043793 6:0.045895192353003086 7:-0.06767265222960567 0:0.0 0:0.0 
0.8238874800082274 1:-0.35945696855606846 2:0.04288793716578781 3:-0.02401941332946035 4:-0.05514407995253084 5:-0.6656037045593965 6:0.04011121486858534 7:-0.14612622441416456 0:0.0 0:0.0 
0.8238874800082274 1:-0.21742415094573297 2:0.24029230012534408 3:-0.1982301848917337 4:-0.001611034719645074 5:-0.7824129313408265 6:0.032315419128717944 7:-0.27009292661604767 0:0.0 0:0.0 
0.8238874800082274 1:-0.014520125788110818 2:0.17299535820731352 3:-0.18548305526522588 4:0.06743883521842496 5:-0.8941764031856936 6:0.03483019194803001 7:-0.32013222425940413 0:0.0 0:0.0 
0.8238874800082274 1:0.1630208962248086 2:0.11616682947653217 3:0.018471018758899 4:0.15122968862642006 5:-1.0097241912329828 6:0.032315419128717944 7:-0.32993892078247394 0:0.0 0:0.0 
0.8238874800082274 1:0.11736749056434359 2:0.3494628947923714 3:0.17993466069466454 4:0.09924832586405273 5:-1.0183019746251396 6:0.02728587349009382 7:-0.3754520507997982 0:0.0 0:0.0 
0.8238874800082274 1:0.34056191823772797 2:0.14906755663645824 3:0.0057238891323911955 4:0.012354107515020776 5:-1.0183019746251396 6:0.02527405523464417 7:-0.35332412018364057 0:0.0 0:0.0 
0.8238874800082274 1:0.36592492138243077 2:-0.05730973191216878 3:0.12044805577096145 4:0.037956868278574835 5:-1.0183019746251396 6:0.022004850569538485 7:-0.31862350171739334 0:0.0 0:0.0 
0.8238874800082274 1:0.026060679243413615 2:-0.06927363269759643 3:0.08645571010027396 4:-0.03729973154156892 5:-0.9269738102733521 6:0.02502257795271296 7:-0.34200870111855997 0:0.0 0:0.0 
0.8238874800082274 1:0.010842877356591953 2:-0.019922541957707367 3:0.07370858047376616 4:-0.052816556246753195 5:-0.5500559165121073 6:0.021501896005676074 7:-0.42247390335913315 0:0.0 0:0.0 
0.8238874800082274 1:0.10722228930646249 2:-0.30855164840614946 3:0.21392700636535203 4:-0.09859118912704681 5:-0.190041301788348 6:0.008928031909115753 7:-0.4594376056383965 0:0.0 0:0.0 
0.8238874800082274 1:-0.14133514151162466 2:0.026437573585824787 3:0.16718753106815673 4:0.06278378780686968 5:-0.04951702680507263 6:0.053690988092870484 7:0.5232436767246037 0:0.0 0:0.0 
0.8238874800082274 1:-0.10075433648010022 2:0.05784281314757237 3:-0.2704639194419446 4:-0.05747160365830847 5:-0.0795392686776216 6:-0.006412082288687836 7:0.6404211274874385 0:0.0 0:0.0 
0.8238874800082274 1:0.036205880501294724 2:0.005500747211326394 3:0.060961450847258354 4:-0.06755753971667826 5:-0.11536412872721782 6:-0.013956400746624027 7:0.6924720551868093 0:0.0 0:0.0 
0.8238874800082274 1:-0.08046393396433801 2:-0.10815631025023631 3:0.20542891994768014 4:0.01778499616183527 5:-0.175913187965972 6:-0.018734469103316945 7:0.6595316130195746 0:0.0 0:0.0 
0.8238874800082274 1:-0.08553653459327856 2:-0.16648032657919612 3:0.04396527801191461 4:0.1031275320403488 5:-0.14816153581487634 6:-0.0287935603805652 7:0.6404211274874385 0:0.0 0:0.0 
0.8238874800082274 1:6.976760987108447E-4 2:-0.06927363269759643 3:-0.3044562651126321 4:0.18536670297782548 5:-0.08609875009515329 6:-0.03306867417339571 7:0.6270940783663436 0:0.0 0:0.0 
0.8238874800082274 1:0.02098807861447306 2:0.012978185202218677 3:-0.3172033947391399 4:0.1876942266836031 5:-0.03362289875489966 6:-0.02678174212511555 7:0.5390852634157166 0:0.0 0:0.0 
0.8238874800082274 1:-0.009447525159170264 2:-0.027399979948599648 3:0.3116550001685785 4:0.016233313691316843 5:0.13515760387312764 6:0.022004850569538485 7:0.4633976825581775 0:0.0 0:0.0 
0.8238874800082274 1:-0.04495572956175414 2:-0.25770507006808197 3:0.41363203718064095 4:-0.0753159520692704 5:0.20705961171914825 6:0.0265314416443002 7:0.39625952943869924 0:0.0 0:0.0 
0.8238874800082274 1:-0.18698854717208965 2:-0.08721948387573791 3:-0.15998879601221028 4:-8.351934843858601E-4 5:-0.08584646234832514 6:-0.014207878028555233 7:-0.6701558540058976 0:0.0 0:0.0 
0.8238874800082274 1:-0.126117339624803 2:-0.037868393135848846 3:-0.09625314787967124 4:-0.06910922218719669 5:-0.09114450503171614 6:-0.014710832592417646 7:-0.6077953222694534 0:0.0 0:0.0 
0.8238874800082274 1:0.11229488993540304 2:0.04139244956760935 3:-0.10050219108850718 4:-0.05747160365830847 5:-0.11889615718281181 6:-0.01370492346469282 7:-0.686500348211014 0:0.0 0:0.0 
0.8238874800082274 1:-0.03481052830387303 2:0.005500747211326394 3:-0.09625314787967124 4:-0.003938558425422715 5:-0.15345957849826733 6:-0.007417991416412661 7:-0.6261514465305842 0:0.0 0:0.0 
0.8238874800082274 1:-0.00437492453022971 2:0.05485183795121546 3:0.00997293234122713 4:0.020112519867612914 5:-0.16128049864993974 6:-0.007920945980275073 7:-0.5934624581203513 0:0.0 0:0.0 
0.8238874800082274 1:-0.5116349874242851 2:-0.23078629330086975 3:-0.15998879601221028 4:0.05347369298375911 5:-0.6978965361533987 6:-0.014962309874348852 7:0.019330347693014102 0:0.0 0:0.0 
0.8238874800082274 1:0.249255106916798 2:0.10719390388746144 3:-0.7293605859962256 4:0.35760345720537096 5:-0.044975847362166074 6:-0.0207462873587666 7:0.014049818795976485 0:0.0 0:0.0 
0.36720243416485904 1:-0.12104473899586245 2:-0.03039095514495656 3:-0.6061383329399834 4:0.36303434585218547 5:-0.12040988366378066 6:0.0026410998608355934 7:0.020587616478023058 0:0.0 0:0.0 
0.8238874800082274 1:-0.3442391666692468 2:0.06980671393300003 3:0.018471018758899 4:-0.061350809834604544 5:-0.4640257948437107 6:-0.013956400746624027 7:0.3414426104123087 0:0.0 0:0.0 
0.8238874800082274 1:0.13258529245116527 2:-0.010949616368636627 3:-0.04526462937364002 4:-0.22427746923903943 5:0.04509087825548079 6:0.032315419128717944 7:0.5778091419939925 0:0.0 0:0.0 
0.8238874800082274 1:0.010842877356591953 2:-0.033381930341313475 3:0.3371492594215941 4:-0.1482450281836365 5:0.012545758914650413 6:0.02778882805395623 7:0.675876107224691 0:0.0 0:0.0 
0.8238874800082274 1:-0.16162554402738688 2:-0.033381930341313475 3:0.05246336442958648 4:-0.2591903248257041 5:0.015573211876588123 6:0.018484168622501598 7:0.7581014857642768 0:0.0 0:0.0 
0.8238874800082274 1:0.12751269182222472 2:0.10719390388746144 3:0.21817604957418796 4:-0.24677686506155663 5:0.04509087825548079 6:0.01395757754773988 7:0.8400754105468607 0:0.0 0:0.0 
0.8238874800082274 1:0.22389210377209523 2:0.0040052596131479375 3:0.345647345839266 4:-0.153675916830451 5:0.06855363871049804 6:0.014209054829671086 7:0.8727643989570936 0:0.0 0:0.0 
0.8238874800082274 1:0.13765789308010581 2:-0.004967665975922801 3:-0.1642378392210462 4:0.006147377632947065 5:0.035756231622839516 6:0.009430986472978166 7:0.8881030781342029 0:0.0 0:0.0 
0.8238874800082274 1:0.1630208962248086 2:-0.11712923583930704 3:-0.5593988576427882 4:0.3669135520284815 5:0.008256867218571991 6:0.0038984862704916252 7:0.8679867775740596 0:0.0 0:0.0 
0.8238874800082274 1:0.08693188679070027 2:-0.19489459094458678 3:-0.42342947496003824 4:0.4406184693781069 5:0.01002288144636899 6:-0.014207878028555233 7:0.8860914480781885 0:0.0 0:0.0 
0.8238874800082274 1:-0.05510093081963525 2:-0.007958641172279714 3:0.16718753106815673 4:0.3242422840892248 5:0.008761442712228276 6:-0.011944582491174376 7:0.8845827255361778 0:0.0 0:0.0 
0.8238874800082274 1:-0.00437492453022971 2:0.05933830074575083 3:0.33290021621275817 4:0.1031275320403488 5:-0.0015823549077255644 6:-0.006663559570619042 7:0.9044475723393193 0:0.0 0:0.0 
0.8238874800082274 1:0.02098807861447306 2:0.009987210005861764 3:0.30315691375090664 4:-0.003162717190163502 5:-0.05330134300749477 6:-0.002388445777788534 7:0.9964796474019749 0:0.0 0:0.0 
0.8238874800082274 1:-0.07031873270645692 2:0.021951110791289415 3:-0.1387435799680306 4:0.04106023321961169 5:-0.0659157303489019 6:0.00842507734525334 7:1.0 0:0.0 0:0.0 
0.8238874800082274 1:-0.01959272641705137 2:-0.07525558309031026 3:-0.37668999966284294 4:0.07985229498257239 5:-0.03110002128661823 6:0.012951668420015054 7:1.0 0:0.0 0:0.0 
0.8238874800082274 1:-0.05510093081963525 2:-0.12311118623202087 3:-0.1259964503415228 4:-0.03031716042423599 5:-0.007384973084772841 6:0.012700191138083848 7:1.0 0:0.0 0:0.0 
0.8238874800082274 1:-0.07031873270645692 2:-0.03487741793949193 3:0.11619901256212552 4:-0.09859118912704681 5:0.03474708063552694 6:0.01949007775022642 7:1.0 0:0.0 0:0.0 
0.8238874800082274 1:0.036205880501294724 2:0.038401474371252436 3:0.5156090741927034 4:-0.12109058494956401 5:0.10185562129181285 6:0.01622087308512074 7:1.0 0:0.0 0:0.0 
0.8238874800082274 1:-0.05510093081963525 2:0.09223902790567687 3:0.21817604957418796 4:-0.23436340529740923 5:0.12380465526586124 6:0.01697530493091436 7:1.0 0:0.0 0:0.0 
0.8238874800082274 1:0.07678668553281916 2:0.10719390388746144 3:-0.24072061698009303 4:0.020112519867612914 5:0.14802427896136292 6:0.015717918521258326 7:1.0 0:0.0 0:0.0 
0.8238874800082274 1:0.051423682388116385 2:0.10270744109292607 3:-0.504161295927921 4:0.17295324321367805 5:0.1841014267577873 6:0.008676554627184547 7:1.0 0:0.0 0:0.0 
0.8238874800082274 1:-0.07031873270645692 2:0.06681573873664311 3:-0.3214524379479758 4:0.1644189896258267 5:0.24439819824971334 6:0.006664736371734896 7:0.952978147440665 0:0.0 0:0.0 
0.8238874800082274 1:0.02098807861447306 2:0.10719390388746144 3:0.20542891994768014 4:0.14036791133279106 5:0.36978520842330015 6:-0.009681286953793519 7:0.8071349683796261 0:0.0 0:0.0 
0.8238874800082274 1:0.010842877356591953 2:0.12813073026195984 3:0.16718753106815673 4:0.0038198539271694235 5:0.49391077986274623 6:-0.017477082693660915 7:0.704793289279897 0:0.0 0:0.0 
0.8238874800082274 1:0.031133279872354168 2:0.08177061471842768 3:0.060961450847258354 4:0.0193366786323537 5:0.5567304288229536 6:-0.024518446587734694 7:0.5717742518259494 0:0.0 0:0.0 
0.8238874800082274 1:0.036205880501294724 2:0.06232927594210774 3:0.060961450847258354 4:-0.06600585724615983 5:0.5428546027474058 6:-0.018482991821385738 7:0.44378428951203774 0:0.0 0:0.0 
0.8238874800082274 1:0.02098807861447306 2:-0.07824655828666717 3:-0.04526462937364002 4:-0.15212423435993258 5:0.49113561464763666 6:-0.011944582491174376 7:0.48829160450135484 0:0.0 0:0.0 
0.8238874800082274 1:-0.009447525159170264 2:-0.22629983050633437 3:0.12894614218863332 4:-0.16065848794778392 5:0.360702849537487 6:-0.0046517413151693915 7:0.5780605957509942 0:0.0 0:0.0 
0.8238874800082274 1:-0.07031873270645692 2:-0.22779531810451284 3:0.29040978412439883 4:-0.28091387941296203 5:0.18990404493483456 6:0.004401440834354038 7:0.6761275609816928 0:0.0 0:0.0 
0.8238874800082274 1:-0.15148034276950575 2:-0.10366984745570093 3:0.17143657427699266 4:-0.3266885122932557 5:0.0362608071164958 6:0.004401440834354038 7:0.8023573469965921 0:0.0 0:0.0 
0.8238874800082274 1:0.061568883645997496 2:0.04288793716578781 3:0.07370858047376616 4:-0.15212423435993258 5:-0.12469877535985908 6:0.0013837134511795616 7:0.9044475723393193 0:0.0 0:0.0 
0.8238874800082274 1:0.10214968867752193 2:0.026437573585824787 3:-0.37244095645400704 4:0.1426954350385687 5:-0.3189603404175288 6:-0.010687196081518344 7:0.8881030781342029 0:0.0 0:0.0 
0.8238874800082274 1:-0.07539133333539746 2:0.023446598389467874 3:-0.4786670366749054 4:0.4763071662000307 5:-0.4741173047168364 6:-0.0129504916188992 7:0.675876107224691 0:0.0 0:0.0 
0.8238874800082274 1:0.04127848113023528 2:0.05485183795121546 3:0.17143657427699266 4:0.5189784341392875 5:-0.5112036035005734 6:-0.02803912853477158 7:0.39625952943869924 0:0.0 0:0.0 
0.8238874800082274 1:-0.11597213836692188 2:-0.11712923583930704 3:0.0907047533091099 4:-0.024886271777421493 5:-0.2241001476101472 6:0.01043689560070299 7:-0.6098069523254677 0:0.0 0:0.0 
0.8238874800082274 1:0.1630208962248086 2:-0.016931566761350453 3:-0.05801175900014783 4:-0.04428230265890184 5:-0.16254193738408046 6:0.008676554627184547 7:-0.6794596430149639 0:0.0 0:0.0 
0.8238874800082274 1:0.026060679243413615 2:-0.26069604526443885 3:0.0014748459235552603 4:-0.142814139536822 5:-0.10602948209457655 6:0.008173600063322134 7:-0.8582432642432375 0:0.0 0:0.0 
0.8238874800082274 1:0.0717140849038786 2:-0.1978855661409437 3:0.4221301235983128 4:-0.16919274153563527 5:-0.06187912639965162 6:0.002389622578904387 7:-1.01163005601433 0:0.0 0:0.0 
0.8238874800082274 1:0.16809349685374914 2:-0.3250020119861125 3:0.21392700636535203 4:-0.1366074096547483 5:-0.034127474248555945 6:-0.010938673363449551 7:-1.01163005601433 0:0.0 0:0.0 
0.8238874800082274 1:0.04635108175917583 2:-0.47455077180395816 3:0.02696910517657087 4:-0.10712544271489817 5:-0.0825667216395593 6:-0.022758105614216248 7:-1.01163005601433 0:0.0 0:0.0 
0.8238874800082274 1:-0.05510093081963525 2:-0.04534583112674113 3:-0.31295435153030393 4:0.19079759162463997 5:-0.13151054452421893 6:-0.03382310601918933 7:-1.01163005601433 0:0.0 0:0.0 
0.8238874800082274 1:-0.29351316037984126 2:0.06681573873664311 3:-0.1514907095945384 4:0.34053495002966827 5:-0.11309353900576453 6:-0.02929651494442761 7:-1.01163005601433 0:0.0 0:0.0 
0.8238874800082274 1:-0.1920611478010302 2:0.07130220153117849 3:-0.028268456538296287 4:0.22183124103500854 5:-0.11334582675259268 6:-0.026278787561253136 7:-1.01163005601433 0:0.0 0:0.0 
0.8238874800082274 1:0.005770276727651399 2:0.10420292869110452 3:0.00997293234122713 4:0.21562451115293485 5:-0.13529486072664107 6:-0.017477082693660915 7:-1.01163005601433 0:0.0 0:0.0 
0.8238874800082274 1:0.09707708804858138 2:0.0294285487821817 3:0.16718753106815673 4:0.1915734328598992 5:-0.14336806862514162 6:-0.0069150368525502486 7:-0.7546443163584995 0:0.0 0:0.0 
0.8238874800082274 1:0.12751269182222472 2:-0.0393638807340273 3:0.0907047533091099 4:0.09148991351146059 5:0.10740595172203198 6:0.038099396613135696 7:-0.5524754957290593 0:0.0 0:0.0 
0.8238874800082274 1:0.015915477985532507 2:-0.027399979948599648 3:0.05246336442958648 4:0.02554340851442741 5:0.14222166078431564 6:0.035836101075754835 7:-0.5861702991672993 0:0.0 0:0.0 
0.8238874800082274 1:0.13258529245116527 2:-0.012445103966815084 3:-0.07075888862665564 4:0.054249534219018326 5:0.1419693730374875 6:0.01823269134057039 7:-0.5647967298221471 0:0.0 0:0.0 
0.8238874800082274 1:0.14273049370904636 2:-0.084228508679381 3:0.06945953726493022 4:0.08528318362938687 5:0.11875890032929838 6:0.00842507734525334 7:-0.5549900332990773 0:0.0 0:0.0 
0.8238874800082274 1:0.031133279872354168 2:-0.004967665975922801 3:0.10770092614445365 4:-0.04117893771786498 5:0.10538764974740683 6:0.022256327851469693 7:-0.5647967298221471 0:0.0 0:0.0 
0.8238874800082274 1:6.976760987108447E-4 2:0.009987210005861764 3:0.03546719159424275 4:-0.08229852318660331 5:0.08217717703921773 6:0.0265314416443002 7:-0.578123778943242 0:0.0 0:0.0 
0.8238874800082274 1:0.005770276727651399 2:0.015969160398575592 3:-0.00702324049411661 4:-0.09548782418600996 5:0.04837061896424664 6:0.01898712318636401 7:-0.5942168193913566 0:0.0 0:0.0 
0.6326609070903111 1:-0.04495572956175414 2:0.02045562319311096 3:0.014221975550063066 4:-0.05747160365830847 5:0.0037156877756654274 6:0.008928031909115753 7:-0.5869246604383047 0:0.0 0:0.0 
0.8238874800082274 1:-0.09060913522221913 2:-0.03188644274313502 3:-0.02401941332946035 4:-0.034972207835791275 5:-0.03311832326124337 6:-0.004903218597100597 7:-0.5979886257463836 0:0.0 0:0.0 
0.8238874800082274 1:0.036205880501294724 2:-0.05730973191216878 3:-0.1982301848917337 4:-0.033420525365272846 5:-0.041948394400228364 6:3.778043234547361E-4 7:-0.6266543540445877 0:0.0 0:0.0 
0.8238874800082274 1:-0.10075433648010022 2:-0.09021045907209482 3:-0.10900027750617905 4:0.08838654857042373 5:-0.04800330032410378 6:0.010688372882634196 7:-0.652805544772774 0:0.0 0:0.0 
0.8238874800082274 1:-0.15148034276950575 2:-0.13357959941927006 3:0.12044805577096145 4:0.11166178562820016 5:-0.03690263946366551 6:0.018484168622501598 7:-0.6148360274655036 0:0.0 0:0.0 
0.8238874800082274 1:0.04127848113023528 2:0.11616682947653217 3:-0.5211574687632647 4:0.1426954350385687 5:0.0032111122820091425 6:0.011945759292290229 7:-0.5617792847381256 0:0.0 0:0.0 
0.8238874800082274 1:-0.05510093081963525 2:-0.0393638807340273 3:0.32865117300392227 4:-0.13815909212526672 5:0.04433401501499636 6:0.053690988092870484 7:0.4797421767632939 0:0.0 0:0.0 
0.8238874800082274 1:-0.09568173585115967 2:0.21785998615266722 3:-0.3511957404098273 4:0.1923492740951584 5:0.04332486402768379 6:-0.14522754191471376 7:0.46138605250216314 0:0.0 0:0.0 
0.8238874800082274 1:0.09200448741964083 2:0.06232927594210774 3:-0.572145987269296 4:0.07364556510049867 5:-0.19231189150980127 6:-0.1313962914084974 7:-0.18987917813247623 0:0.0 0:0.0 
0.8238874800082274 1:1.0 2:0.17598633340367045 3:0.09920283972678177 4:0.0697663589242026 5:0.026926160483854534 6:0.060983829268875474 7:0.0012256771888851299 0:0.0 0:0.0 
0.8238874800082274 1:-0.2884405597509007 2:-0.019922541957707367 3:0.5963408951605862 4:0.2357963832696744 5:-0.013944454502304545 6:0.016472350367051945 7:-0.025931328567308325 0:0.0 0:0.0 
0.8238874800082274 1:-0.9428060408842321 2:-0.3952899291005 3:0.03546719159424275 4:0.027870932220205053 5:-0.008898699565741696 6:-0.03834969709395104 7:2.198621608779648E-4 0:0.0 0:0.0 
0.49867078895545036 1:0.12244009119328415 2:-0.02291351715406428 3:0.5793447223252425 4:0.07985229498257239 5:-0.16859684330795588 6:0.022759282415332104 7:-0.10916252213490123 0:0.0 0:0.0 
0.8238874800082274 1:0.015915477985532507 2:0.04288793716578781 3:0.6388313272489455 4:0.03485350333753798 5:-0.13176283227104707 6:0.026782918926231407 7:-0.0782337100236809 0:0.0 0:0.0 
0.8238874800082274 1:0.30505371383514407 2:-0.17096678937373147 3:0.4688695988955081 4:0.13571286392123577 5:0.0054817020034624245 6:-0.01244753705503679 7:0.23734075501356713 0:0.0 0:0.0 
0.8238874800082274 1:0.5282481415085285 2:0.21636449855448878 3:0.49436385814852374 4:0.08605902486464609 5:-0.0010777794140692796 6:-0.011944582491174376 7:0.2237622521354704 0:0.0 0:0.0 
0.8238874800082274 1:-0.08046393396433801 2:0.14906755663645824 3:-1.0055483945705614 4:-0.2165190568864473 5:-0.16506481485236188 6:0.0028925771427667996 7:0.1840325585291874 0:0.0 0:0.0 
0.8238874800082274 1:-0.05510093081963525 2:0.05186086275485855 3:-0.9163184871850067 4:-0.03186884289475442 5:-0.16153278639676788 6:0.005155872680147657 7:0.19987414522030023 0:0.0 0:0.0 
0.8238874800082274 1:0.22389210377209523 2:-0.3250020119861125 3:0.5708466359075706 4:0.24976152550434025 5:-0.06288827738696419 6:0.026279964362368992 7:0.350746399421375 0:0.0 0:0.0 
0.8238874800082274 1:0.4115783270428957 2:-4.812031813874319E-4 3:0.3116550001685785 4:-0.08540188812764017 5:-0.4218937411234109 6:-0.10675151777923918 7:0.06936964533637056 0:0.0 0:0.0 
0.8238874800082274 1:0.1833112987405708 2:0.0847615899147846 3:0.4178810803894769 4:-0.06910922218719669 5:-0.4925343102352908 6:-0.050672083908580155 7:0.05176788234624517 0:0.0 0:0.0 
0.8238874800082274 1:0.04127848113023528 2:-0.09021045907209482 3:0.3838887347187894 4:-0.15134839312467335 5:-0.5500559165121073 6:-0.022758105614216248 7:0.024107969076048136 0:0.0 0:0.0 
0.8238874800082274 1:0.6094097515715773 2:0.39582301033590356 3:0.09920283972678177 4:-0.2266049929448171 5:0.5383134233044993 6:-0.022255151050353836 7:-0.1931480769734995 0:0.0 0:0.0 
0.8238874800082274 1:0.249255106916798 2:0.23431034973263024 3:0.014221975550063066 4:0.13416118145071734 5:1.0 6:0.017226782212845564 7:0.023353607805042764 0:0.0 0:0.0 
0.8238874800082274 1:0.203601701256333 2:0.027933061184003242 3:0.17993466069466454 4:0.2870019047967825 5:1.0 6:0.03281837369258036 7:0.05352805864525771 0:0.0 0:0.0 
0.8238874800082274 1:-0.02973792767493248 2:0.07578866432571385 3:0.06521049405609429 4:0.20553857509456505 5:1.0 6:0.02929769174554347 7:0.08671995456949416 0:0.0 0:0.0 
0.8238874800082274 1:0.0717140849038786 2:-0.006463153574101257 3:0.0057238891323911955 4:0.07674893004153553 5:1.0 6:0.014963486675464705 7:0.1256952869047718 0:0.0 0:0.0 
0.8238874800082274 1:-0.10582693710904079 2:-0.06478716990306106 3:-0.01552132691178848 4:0.06278378780686968 5:1.0 6:0.010939850164565404 7:0.17070550940809245 0:0.0 0:0.0 
0.8238874800082274 1:-0.07031873270645692 2:-0.03188644274313502 3:-0.08775506146199938 4:-0.06600585724615983 5:1.0 6:0.0033955317066292124 7:0.2702811971808018 0:0.0 0:0.0 
0.8238874800082274 1:0.036205880501294724 2:-0.03637290553767039 3:-0.08350601825316344 4:-0.153675916830451 5:1.0 6:0.01697530493091436 7:0.33440190521625857 0:0.0 0:0.0 
0.8238874800082274 1:0.10722228930646249 2:0.05186086275485855 3:0.06945953726493022 4:0.020112519867612914 5:1.0 6:0.03407576010223639 7:0.24890762783564954 0:0.0 0:0.0 
0.8238874800082274 1:0.2796907106904413 2:0.11467134187835372 3:0.21817604957418796 4:0.1372645463917542 5:1.0 6:0.022256327851469693 7:0.16089881288502259 0:0.0 0:0.0 
0.8238874800082274 1:-0.36452956918500906 2:0.3718952087650482 3:-0.019770370120624416 4:-0.027213795483199132 5:0.7154194215778553 6:0.045643715071071886 7:0.030394313001092917 0:0.0 0:0.0 
0.8238874800082274 1:-0.28336795912196017 2:-0.016931566761350453 3:-0.15573975280337432 4:-0.05514407995253084 5:0.7212220397549026 6:0.05670871547604496 7:-0.1099168834059066 0:0.0 0:0.0 
0.8238874800082274 1:0.08693188679070027 2:-0.5104424741602411 3:0.19268179032117233 4:-0.009369447072237212 5:0.7212220397549026 6:0.033321328256442774 7:-0.2137672850476464 0:0.0 0:0.0 
0.8238874800082274 1:0.2746181100615008 2:-0.6629822091744437 3:0.15444040144164892 4:-0.04273062018838341 5:0.7691567116522496 6:0.03508166922996122 7:-0.2914664959611999 0:0.0 0:0.0 
0.8238874800082274 1:0.21374690251421413 2:-0.31602908639704175 3:0.04821432122075055 4:-0.05204071501149398 5:0.897318887040946 6:0.017226782212845564 7:-0.30378773005428766 0:0.0 0:0.0 
0.8238874800082274 1:0.11736749056434359 2:-0.010949616368636627 3:-0.11324932071501498 4:0.008474901338724706 5:0.851150229371396 6:-8.795820862012957E-4 7:-0.33044182829647756 0:0.0 0:0.0 
0.8238874800082274 1:-0.3696021698139496 2:-0.003472178377744345 3:-0.1642378392210462 4:-0.051264873776234766 5:0.29334202113437297 6:-0.0054061731609630105 7:-0.4644666807784323 0:0.0 0:0.0 
0.8238874800082274 1:-0.1362625408826841 2:0.17598633340367045 3:-0.2704639194419446 4:-0.02876547795371756 5:0.5365474090767023 6:-0.022758105614216248 7:-0.5617792847381256 0:0.0 0:0.0 
0.8238874800082274 1:-0.2884405597509007 2:-0.17993971496280223 3:-0.27896200585961645 4:0.07054220015946182 5:0.5168689648241072 6:-0.045894015551887234 7:-0.5766150564012312 0:0.0 0:0.0 
0.8238874800082274 1:-0.08046393396433801 2:-0.051327781519454954 3:-0.18548305526522588 4:-0.06290249230512297 5:0.34834074994290803 6:-0.05771344780265393 7:-0.5693228974481793 0:0.0 0:0.0 
0.8238874800082274 1:0.11736749056434359 2:0.0982209782983907 3:-0.4191804317512023 4:0.046491121866426184 5:-0.1009837271580137 6:-0.05922231149424117 7:-0.5185292385338175 0:0.0 0:0.0 
0.8238874800082274 1:-0.1464077421405652 2:-0.04684131872491958 3:-0.635881635401835 4:0.10700673821664487 5:-0.019242497185695536 6:-0.05620458411106669 7:-0.4501338166293302 0:0.0 0:0.0 
0.8238874800082274 1:0.12751269182222472 2:0.12513975506560293 3:0.08645571010027396 4:-0.33755028958688466 5:0.04837061896424664 6:-0.04891174293506171 7:-0.5494580506450378 0:0.0 0:0.0 
0.8238874800082274 1:0.10722228930646249 2:0.23131937453627333 3:0.15868944465048487 4:-0.34220533699843997 5:-0.2175406661926155 6:-0.056959015956860315 7:-0.5454347905330091 0:0.0 0:0.0 
0.8238874800082274 1:0.08185928616175972 2:0.1430856062437444 3:-0.10475123429734311 4:-0.09160861800971389 5:-0.4428336241101467 6:-0.06148560703162203 7:-0.5084710882537458 0:0.0 0:0.0 
0.8238874800082274 1:-0.30873096226666297 2:-0.16498483898101765 3:-0.29170913548612426 4:0.19390095656567682 5:-0.5578768366637797 6:-0.06148560703162203 7:-0.4307718773401923 0:0.0 0:0.0 
0.8238874800082274 1:0.24418250628785745 2:0.29263436606159005 3:0.40088490755413314 4:0.1201960392160515 5:-0.43879702016089644 6:-0.06777253907990219 7:-0.33547090343651337 0:0.0 0:0.0 
0.8238874800082274 1:0.203601701256333 2:0.08924805270931996 3:0.20967796315651607 4:0.08916238980568295 5:-0.5500559165121073 6:-0.05771344780265393 7:-0.26430949020500644 0:0.0 0:0.0 
0.8238874800082274 1:-0.07031873270645692 2:-0.21284044212272826 3:0.08645571010027396 4:0.27536428626789433 5:-0.9123411209573199 6:-0.011944582491174376 7:-0.07622207996766657 0:0.0 0:0.0 
0.8238874800082274 1:0.2746181100615008 2:-0.31602908639704175 3:0.018471018758899 4:0.23269301832863754 5:-0.9007358846032253 6:-0.02124924192262901 7:-0.04755635166946238 0:0.0 0:0.0 
0.8238874800082274 1:0.30505371383514407 2:-0.2532186072735466 3:0.150191358232813 4:0.050370328042722255 5:-0.7211070088615879 6:-0.027033219407046755 7:0.06735801528035623 0:0.0 0:0.0 
0.8238874800082274 1:0.1630208962248086 2:-0.06927363269759643 3:0.30315691375090664 4:-0.059799127364086116 5:-0.6088389615230645 6:-0.021500719204560217 7:0.11639149789570553 0:0.0 0:0.0 
0.8238874800082274 1:-0.06524613207751635 2:-0.0393638807340273 3:-0.15573975280337432 4:-0.3693597802325124 5:1.0 6:1.2632704152352973E-4 7:0.024107969076048136 0:0.0 0:0.0 
0.8238874800082274 1:-0.13118994025374356 2:0.16402243261824279 3:0.018471018758899 4:-0.005490240895941144 5:1.0 6:0.009430986472978166 7:0.017821625151003353 0:0.0 0:0.0 
0.8238874800082274 1:-0.2681501572351385 2:0.2223464489472026 3:0.07795762368260209 4:0.15045384739116086 5:1.0 6:0.012951668420015054 7:-0.004557759222156069 0:0.0 0:0.0 
0.8238874800082274 1:-0.126117339624803 2:0.16551792021642125 3:-0.09625314787967124 4:-0.08850525306867703 5:1.0 6:0.014963486675464705 7:0.030142859244091127 0:0.0 0:0.0 
0.8238874800082274 1:-0.060173531448575804 2:0.15804048222552897 3:-0.3172033947391399 4:-0.13815909212526672 5:1.0 6:0.009430986472978166 7:0.025365237861057092 0:0.0 0:0.0 
0.8238874800082274 1:-0.13118994025374356 2:0.02494208598764633 3:-0.35969382682749923 4:0.006147377632947065 5:1.0 6:0.008173600063322134 7:0.10507607883062493 0:0.0 0:0.0 
0.8238874800082274 1:0.16809349685374914 2:-0.10516533505387939 3:0.0907047533091099 4:0.10778257945190409 5:1.0 6:0.00842507734525334 7:0.17875202963214978 0:0.0 0:0.0 
0.8238874800082274 1:0.05649628301705694 2:-0.254714094871725 3:0.30315691375090664 4:0.11476515056923701 5:1.0 6:0.011945759292290229 7:0.1339932608858309 0:0.0 0:0.0 
0.2002889877554477 1:-0.03481052830387303 2:-0.3893079787077861 3:0.25641743845371134 4:-0.001611034719645074 5:0.8216325629925033 6:0.02502257795271296 7:0.10935079269965538 0:0.0 0:0.0 
0.8238874800082274 1:0.16809349685374914 2:0.008491722407683307 3:-0.23222253056242118 4:-0.11565969630274951 5:-1.0183019746251396 6:0.02099894144181366 7:0.08445687075647805 0:0.0 0:0.0 
0.8238874800082274 1:-0.0500283301906947 2:0.2118780357599534 3:-0.09200410467083531 4:-0.05204071501149398 5:-1.0183019746251396 6:0.02099894144181366 7:0.11940894297972703 0:0.0 0:0.0 
0.8238874800082274 1:0.17823869811163023 2:0.5124710429938232 3:0.07370858047376616 4:0.17140156074315963 5:-1.0183019746251396 6:0.031812464564855536 7:0.1598929978570154 0:0.0 0:0.0 
0.8238874800082274 1:0.3101263144640847 2:0.46760641504846945 3:0.07795762368260209 4:0.2458823193280442 5:-1.0183019746251396 6:0.03281837369258036 7:0.19710815389328054 0:0.0 0:0.0 
0.8238874800082274 1:0.19852910062739246 2:0.2253374241435595 3:0.15868944465048487 4:0.158212259743753 5:-1.0183019746251396 6:0.0343272373841676 7:0.23734075501356713 0:0.0 0:0.0 
0.8238874800082274 1:-0.09060913522221913 2:-0.010949616368636627 3:0.1629384878593208 4:0.1915734328598992 5:-1.0183019746251396 6:0.049667351581971185 7:0.29743820293699524 0:0.0 0:0.0 
0.8238874800082274 1:-0.28336795912196017 2:-0.06927363269759643 3:0.15444040144164892 4:0.05735289916005518 5:-1.0183019746251396 6:0.057966101885701 7:0.44378428951203774 0:0.0 0:0.0 
0.8238874800082274 1:-0.2782953584930196 2:-0.09021045907209482 3:0.2351722224095317 4:-0.09393614171549153 5:-1.0183019746251396 6:0.06123530655080668 7:0.544617246069756 0:0.0 0:0.0 
0.8238874800082274 1:-0.07031873270645692 2:0.0742931767275354 3:0.0907047533091099 4:-0.07919515824556647 5:-1.0183019746251396 6:0.07883871628599112 7:0.5584472027048545 0:0.0 0:0.0 
0.8238874800082274 1:0.39636052515607406 2:0.24029230012534408 3:0.17143657427699266 4:-0.05048903254097555 5:-1.0183019746251396 6:0.09568769417538195 7:0.5569384801628438 0:0.0 0:0.0 
0.8238874800082274 1:0.10214968867752193 2:-0.024409004752242735 3:0.05671240763842242 4:-0.10402207777386131 5:-1.0183019746251396 6:0.10499235360683658 7:0.5702655292839387 0:0.0 0:0.0 
0.8238874800082274 1:-0.10075433648010022 2:-0.35640725154786007 3:-0.20247922810056962 4:-0.13815909212526672 5:-1.0183019746251396 6:0.11505144488408484 7:0.555429757620833 0:0.0 0:0.0 
0.8238874800082274 1:0.061568883645997496 2:-0.41921773067135526 3:-0.028268456538296287 4:-0.12264226742008244 5:-1.0183019746251396 6:0.12837974082643877 7:0.5124311651735268 0:0.0 0:0.0 
0.8238874800082274 1:0.0717140849038786 2:-0.21732690491726364 3:0.1034518829356177 4:-0.08772941183341781 5:-1.0183019746251396 6:0.145731673279692 7:0.5187175090985715 0:0.0 0:0.0 
0.8238874800082274 1:0.08185928616175972 2:-0.11712923583930704 3:-0.00702324049411661 4:-0.041954778953124196 5:-1.0183019746251396 6:0.15805406009432113 7:0.5187175090985715 0:0.0 0:0.0 
0.8238874800082274 1:0.02098807861447306 2:-0.1186247234374855 3:0.031218148385406805 4:7.164889861325677E-4 5:-1.0183019746251396 6:0.16459246942453248 7:0.5227407692106002 0:0.0 0:0.0 
0.8238874800082274 1:-0.1819159465431491 2:-0.16049837618648227 3:0.13744422860630517 4:0.05735289916005518 5:-1.0183019746251396 6:0.17037644690895024 7:0.49583521721140855 0:0.0 0:0.0 
0.8238874800082274 1:-0.36452956918500906 2:-0.3040651856116141 3:0.014221975550063066 4:-0.10247039530334288 5:-1.0183019746251396 6:0.17716633352109282 7:0.43020578663394105 0:0.0 0:0.0 
0.8238874800082274 1:-0.21235155031679243 2:-0.3399568879678971 3:-0.3554447836186633 4:-0.05359239748201241 5:-0.9824771145755434 6:0.1733941742921247 7:0.38343538783160785 0:0.0 0:0.0 
0.8238874800082274 1:0.04127848113023528 2:0.023446598389467874 3:-0.44892373421305387 4:0.158212259743753 5:-0.9968575161447476 6:0.17037644690895024 7:0.2903974977409451 0:0.0 0:0.0 
0.8238874800082274 1:0.3912879245271335 2:0.48106580343207556 3:-0.20672827130940555 4:0.06899051768894339 5:-0.8916535257174122 6:0.1540304235834218 7:0.1870500036132089 0:0.0 0:0.0 
0.8238874800082274 1:-0.2782953584930196 2:-0.16947130177555303 3:-0.05801175900014783 4:0.07364556510049867 5:-0.9839908410565124 6:0.09493326232958832 7:0.01706726387999798 0:0.0 0:0.0 
0.8238874800082274 1:-0.03988312893281359 2:-0.254714094871725 3:-0.07500793183549156 4:0.13183365774493971 5:-1.0183019746251396 6:0.09845394427662521 7:-0.02894877365132982 0:0.0 0:0.0 
0.8238874800082274 1:0.2898359119483224 2:0.14906755663645824 3:0.1034518829356177 4:0.3475175211470012 5:-1.0183019746251396 6:0.09317292135606987 7:-0.09055494411676868 0:0.0 0:0.0 
0.8238874800082274 1:0.1833112987405708 2:0.08027512712024923 3:0.09920283972678177 4:0.17295324321367805 5:-1.0183019746251396 6:0.08864633028130817 7:-0.14084569551712695 0:0.0 0:0.0 
0.8238874800082274 1:0.026060679243413615 2:-0.04385034352856267 3:-0.26621487623310863 4:0.006147377632947065 5:-0.8475031700224872 6:0.0780842844401975 7:-0.12827300766703736 0:0.0 0:0.0 
0.8238874800082274 1:0.37607012264031187 2:0.03541049917489553 3:-0.504161295927921 4:-0.2607420072962225 5:0.16921644969492688 6:-0.007669468698343868 7:0.008769289898938869 0:0.0 0:0.0 
0.663082968979768 1:-0.04495572956175414 2:0.30011180405248233 3:0.02696910517657087 4:0.11631683303975544 5:1.0 6:0.02728587349009382 7:0.09526938230755506 0:0.0 0:0.0 
0.8238874800082274 1:-0.09060913522221913 2:0.25076071331259325 3:0.0057238891323911955 4:0.14114375256805028 5:1.0 6:0.012700191138083848 7:0.025113784104055303 0:0.0 0:0.0 
0.8238874800082274 1:-0.4000377735875929 2:-0.10217435985752248 3:0.21392700636535203 4:-0.16221017041830235 5:1.0 6:0.0031440544246980062 7:0.0024829459738940863 0:0.0 0:0.0 
0.8238874800082274 1:-0.5116349874242851 2:-0.46408235861670893 3:0.25216839524487544 4:-0.07764347577504804 5:1.0 6:-0.002891400341650947 7:0.030142859244091127 0:0.0 0:0.0 
0.8238874800082274 1:-0.09568173585115967 2:-0.27265994604986654 3:0.06945953726493022 4:-0.027213795483199132 5:1.0 6:-0.007417991416412661 7:0.01103237371195499 0:0.0 0:0.0 
0.8238874800082274 1:0.1630208962248086 2:0.18495925899274118 3:-0.34269765399215546 4:-0.255311118649408 5:1.0 6:-0.008423900544137487 7:-0.03448075630536923 0:0.0 0:0.0 
0.8238874800082274 1:-0.07031873270645692 2:-0.2487321444790112 3:-0.5848931168958038 4:-0.26384537223725935 5:0.9336483225841985 6:-0.008675377826068692 7:-0.11645468108795318 0:0.0 0:0.0 
0.8238874800082274 1:0.13258529245116527 2:-0.1425525250083408 3:-0.41068234533353043 4:0.02554340851442741 5:0.8226417139798159 6:-0.014207878028555233 7:-0.06641538344459672 0:0.0 0:0.0 
0.8238874800082274 1:-0.11089953773798134 2:0.190941209385455 3:0.5793447223252425 4:0.08450734239412767 5:0.707850789173011 6:-0.005657650442894216 7:-0.04328163780043193 0:0.0 0:0.0 
0.8238874800082274 1:-0.4811993836506418 2:0.328526068417873 3:-0.11749836392385092 4:-0.009369447072237212 5:-0.21930668042041251 6:0.003647008988560419 7:0.04397281587918964 0:0.0 0:0.0 
0.8238874800082274 1:-0.45076377987699845 2:0.47508385303936174 3:-0.09625314787967124 4:-0.05048903254097555 5:-0.22132498239503764 6:0.014712009393533499 7:0.09778391987757298 0:0.0 0:0.0 
0.8238874800082274 1:0.6854987610056856 2:0.2941298536597685 3:-0.46167086383956163 4:-0.0365238903063097 5:-0.33813420917646764 6:0.008173600063322134 7:0.11010515397066076 0:0.0 0:0.0 
0.8238874800082274 1:0.7057891635214478 2:0.21785998615266722 3:-0.1642378392210462 4:0.1698498782726412 5:-0.361849257378313 6:8.807588873171488E-4 7:0.10130427247559806 0:0.0 0:0.0 
0.8238874800082274 1:0.20867430188527358 2:-0.23377726849722666 3:0.4221301235983128 4:-0.3693597802325124 5:-0.3351067562145299 6:-0.003394354905513359 7:0.0887315846255085 0:0.0 0:0.0 
0.8238874800082274 1:-0.12104473899586245 2:-0.13507508701744853 3:0.5071109877750315 4:-0.19479550229918935 5:0.06905821420415433 6:0.01697530493091436 7:0.23105441108852234 0:0.0 0:0.0 
0.8238874800082274 1:-0.024665327045991926 2:0.3315170436142299 3:-0.8653299686789755 4:0.14579879997960557 5:-0.12167132239792137 6:-0.014207878028555233 7:0.1777462146041426 0:0.0 0:0.0 
0.8238874800082274 1:0.3557797201245496 2:-0.254714094871725 3:-1.1500158636709832 4:0.03175013839650112 5:-0.007384973084772841 6:0.010688372882634196 7:9.742234318833386E-4 0:0.0 0:0.0 
0.8238874800082274 1:0.12244009119328415 2:-0.06777814509941797 3:-0.7251115427873897 4:0.2567440966216732 5:-0.0010777794140692796 6:0.03483019194803001 7:-0.04378454531443551 0:0.0 0:0.0 
0.8238874800082274 1:0.005770276727651399 2:-0.19339910334640834 3:0.8895248765702657 4:0.37312028191055524 5:-0.007637260831600983 6:0.0941788304837947 7:-0.04101855398741581 0:0.0 0:0.0 
0.42018468672198805 1:-0.09060913522221913 2:0.03391501157671707 3:0.26916456808021916 4:-0.6603002434547176 5:-0.05254447976701034 6:0.059977920141150644 7:9.742234318833386E-4 0:0.0 0:0.0 
0.8238874800082274 1:-0.126117339624803 2:0.05933830074575083 3:0.3541454322569379 4:-0.6385766888674597 5:-0.04951702680507263 6:0.0423745104059662 7:-0.004809212979157861 0:0.0 0:0.0 
0.8238874800082274 1:-0.08046393396433801 2:0.030924036380360155 3:-0.6826211106990303 4:-0.08928109430393624 5:-0.02782028057785238 6:-0.06324594800514047 7:-0.015873178287236677 0:0.0 0:0.0 
0.32984370758934795 1:0.2746181100615008 2:-0.39229895390414304 3:-0.42342947496003824 4:0.05890458163057361 5:-0.03135230903344637 6:0.055954283630251345 7:0.009775104926946034 0:0.0 0:0.0 
0.8238874800082274 1:-0.07539133333539746 2:0.11018487908381835 3:-0.8865751847231551 4:-0.08617772936289939 5:0.04433401501499636 6:0.04312894225175982 7:0.022599246534037387 0:0.0 0:0.0 
0.8238874800082274 1:0.3151989150930252 2:0.02045562319311096 3:-0.5636479008516241 4:0.1807116555662702 5:0.0647693225080759 6:-0.0287935603805652 7:-0.007072296792173982 0:0.0 0:0.0 
0.8238874800082274 1:0.4115783270428957 2:-0.32051554919157715 3:0.2606664816625473 4:-0.17927867759400506 5:-0.08635103784198143 6:-0.012699014336967995 7:0.011535281225958573 0:0.0 0:0.0 
0.8238874800082274 1:-0.17177074528526798 2:0.17449084580549198 3:-0.8993223143496629 4:-0.01790370066008857 5:-0.17566090021914388 6:0.06601337490749959 7:-0.011598464418206224 0:0.0 0:0.0 
0.8238874800082274 1:-0.3543843679271279 2:0.20739157296541802 3:-0.6613758946548506 4:0.04959448680746304 5:-0.26118644639388416 6:0.09065814853675781 7:-0.015621724530234884 0:0.0 0:0.0 
0.8238874800082274 1:0.1478030943379869 2:0.13710365585103057 3:-0.640130678610671 4:0.3257939665597432 5:0.08343861577335844 6:0.055954283630251345 7:-0.09508111174280093 0:0.0 0:0.0 
0.8238874800082274 1:0.15287569496692746 2:-0.019922541957707367 3:-0.6953682403255381 4:0.26605419144478376 5:0.059471279824684906 6:0.017226782212845564 7:-0.04428745282843909 0:0.0 0:0.0 
0.23417544950498173 1:-0.2884405597509007 2:0.9222346448947203 3:-0.09200410467083531 4:0.04338775692538933 5:-0.16531710259919002 6:0.09493326232958832 7:-0.02718859735231728 0:0.0 0:0.0 
0.8238874800082274 1:-0.2529323553483169 2:0.021951110791289415 3:0.039716234803078676 4:0.16829819580212277 5:0.08545691774798359 6:0.2908340649539981 7:0.07339290544839923 0:0.0 0:0.0 
0.8238874800082274 1:-0.12104473899586245 2:-0.32051554919157715 3:-0.10900027750617905 4:-0.0644541747756414 5:9.405225605558603E-4 6:-0.3733174366263179 7:0.16844242559507633 0:0.0 0:0.0 
0.24088079522461597 1:-0.410182974845474 2:0.1595359698237074 3:-0.3172033947391399 4:-0.13117652100793378 5:0.24969624093310433 6:0.021753373287607278 7:0.12142057303574136 0:0.0 0:0.0 
0.8238874800082274 1:0.09200448741964083 2:-0.5298838129365611 3:-0.5806440736869678 4:0.03485350333753798 5:0.3072178472099208 6:0.028543259899749852 7:0.05906004129929712 0:0.0 0:0.0 
0.8238874800082274 1:0.061568883645997496 2:0.02494208598764633 3:-0.44042564779538196 4:-0.14591750447785887 5:-0.4408153221355216 6:-0.015968219002073677 7:0.1870500036132089 0:0.0 0:0.0 
0.8238874800082274 1:-0.07539133333539746 2:-0.040859368332205756 3:0.28616074091556293 4:-0.0365238903063097 5:-0.7168181171655095 6:0.03483019194803001 7:0.058054226271289956 0:0.0 0:0.0 
0.8238874800082274 1:0.036205880501294724 2:0.012978185202218677 3:0.32865117300392227 4:-0.06523001601090062 5:-0.7960364696695462 6:0.039356783022791726 7:0.06735801528035623 0:0.0 0:0.0 
0.8238874800082274 1:0.12751269182222472 2:0.0847615899147846 3:0.4051339507629691 4:-0.19479550229918935 5:-0.6237239385859249 6:0.014963486675464705 7:0.06232894014032041 0:0.0 0:0.0 
0.8238874800082274 1:0.10722228930646249 2:0.06980671393300003 3:0.6133370679959299 4:-0.09548782418600996 5:0.10891967820300083 6:-0.06576072082445254 7:0.08294814821446729 0:0.0 0:0.0 
0.8238874800082274 1:-0.009447525159170264 2:0.1430856062437444 3:0.3371492594215941 4:-0.10634960147963896 5:0.6911997978823536 6:-0.10826038147082642 7:0.10507607883062493 0:0.0 0:0.0 
0.8238874800082274 1:-0.07031873270645692 2:0.008491722407683307 3:-0.6018892897311475 4:-0.3282401947637741 5:-0.2886858107981517 6:-0.0069150368525502486 7:-0.03624093260438177 0:0.0 0:0.0 
0.8238874800082274 1:-0.00437492453022971 2:-0.010949616368636627 3:-1.0735330859119363 4:-0.13893493336052593 5:-0.23444394523010106 6:-0.009932764235724725 7:-0.0354865713333764 0:0.0 0:0.0 
0.8238874800082274 1:0.010842877356591953 2:-0.058805219510347236 3:-0.6656249378636865 4:0.4406184693781069 5:-0.1973576464463641 6:-0.002891400341650947 7:-0.01863916961425638 0:0.0 0:0.0 
0.13049104392986222 1:0.4369413301875985 2:0.1356081682528521 3:-0.07500793183549156 4:-0.0023868759549042877 5:0.06174186954613819 6:0.25009474528114267 7:0.024359422833049926 0:0.0 0:0.0 
0.8238874800082274 1:0.6449179559741612 2:-0.04684131872491958 3:-0.2237244441447493 4:0.010802425044502349 5:-0.02882943156516495 6:0.13466667287471892 7:0.0019800384598905037 0:0.0 0:0.0 
0.8238874800082274 1:-0.4913445849085229 2:0.5842544477063891 3:-0.26196583302427273 4:-0.08385020565712174 5:0.10791052721568827 6:-0.015968219002073677 7:0.06132312511231324 0:0.0 0:0.0 
0.8238874800082274 1:0.17316609748268968 2:-0.03188644274313502 3:-0.1514907095945384 4:0.13183365774493971 5:-0.2203158314077251 6:0.03734496476734207 7:0.49608667096841036 0:0.0 0:0.0 
0.8238874800082274 1:0.015915477985532507 2:-0.20536300413183597 3:0.1756856174858286 4:-0.255311118649408 5:-0.1057771943477484 6:-0.0365893561204326 7:-0.5278330275428837 0:0.0 0:0.0 
0.8238874800082274 1:-0.02973792767493248 2:-0.16947130177555303 3:0.1756856174858286 4:-0.35384295552732814 5:-0.0737366505005743 6:0.03005212359133709 7:-0.6349523280256468 0:0.0 0:0.0 
0.8238874800082274 1:-0.19713374842997075 2:-0.11264277304477167 3:-0.16848688242988213 4:-0.2041055971222999 5:-0.04648957384313493 6:0.021753373287607278 7:-0.7284931256303132 0:0.0 0:0.0 
0.8238874800082274 1:-0.30365836163772236 2:-0.1425525250083408 3:-0.1259964503415228 4:-0.08074684071608489 5:-0.02655884184371167 6:-0.003645832187444566 7:-0.8195193856649616 0:0.0 0:0.0 
0.8238874800082274 1:-0.12104473899586245 2:0.05485183795121546 3:-0.01552132691178848 4:0.11166178562820016 5:-0.0154581809832734 6:-0.017477082693660915 7:-0.911802914484619 0:0.0 0:0.0 
0.8238874800082274 1:-0.07031873270645692 2:0.08326610231660614 3:0.014221975550063066 4:0.40027472514462775 5:-0.008394124072085412 6:-0.023764014741941075 7:-1.0043378970612782 0:0.0 0:0.0 
0.8238874800082274 1:-0.04495572956175414 2:-0.14853447540105463 3:0.12469709897979737 4:0.34441415620596433 5:-6.862842675670964E-5 6:-0.011441627927311963 7:-1.01163005601433 0:0.0 0:0.0 
0.8238874800082274 1:0.15287569496692746 2:-0.06030070710852569 3:0.1034518829356177 4:0.15743641850849377 5:0.010779744686853417 6:-0.035583446992707775 7:-1.01163005601433 0:0.0 0:0.0 
0.8238874800082274 1:0.44201393081653906 2:0.20739157296541802 3:-0.1642378392210462 4:-0.014024494483792498 5:0.020871254559979114 6:-0.060228220621966 7:-1.01163005601433 0:0.0 0:0.0 
0.8238874800082274 1:0.05649628301705694 2:0.17149987060913507 3:-0.04526462937364002 4:0.036405185808056406 5:0.031467339926761095 6:-0.06173708431355324 7:-1.01163005601433 0:0.0 0:0.0 
0.8238874800082274 1:-0.09568173585115967 2:0.07578866432571385 3:-0.062260802208983765 4:0.04959448680746304 5:0.0463523169896215 6:-0.04639697011574965 7:-1.01163005601433 0:0.0 0:0.0 
0.8238874800082274 1:-0.10075433648010022 2:0.03541049917489553 3:0.0014748459235552603 4:-0.023334589306903065 5:0.05896670433102862 6:-0.05167799303630498 7:-0.9935253855102012 0:0.0 0:0.0 
0.8238874800082274 1:-0.04495572956175414 2:-0.025904492350421193 3:0.00997293234122713 4:-0.024886271777421493 5:0.0647693225080759 6:-0.03985856078553828 7:-0.8406415012531121 0:0.0 0:0.0 
0.8238874800082274 1:-0.014520125788110818 2:-0.06179619470670415 3:0.018471018758899 4:-0.04117893771786498 5:0.06073271855882562 6:-0.015716741720142473 7:-0.686500348211014 0:0.0 0:0.0 
0.12879077462792327 1:-0.014520125788110818 2:0.10719390388746144 3:-0.0665098454178197 4:-0.20255391465178146 5:-0.18499554685178513 6:0.12787678626257637 7:-0.4991672992446795 0:0.0 0:0.0 
0.8238874800082274 1:-0.014520125788110818 2:0.2253374241435595 3:0.022720061967734937 4:-0.041954778953124196 5:-0.2061877175853491 6:0.11077633109125433 7:-0.5575045708690951 0:0.0 0:0.0 
0.8238874800082274 1:-0.11089953773798134 2:0.16402243261824279 3:-0.20247922810056962 4:0.09536911968775666 5:-0.21400863773702153 6:0.07682689803054146 7:-0.6261514465305842 0:0.0 0:0.0 
0.8238874800082274 1:0.10214968867752193 2:0.05485183795121546 3:-0.27896200585961645 4:0.06899051768894339 5:-0.2092151705472868 6:0.06827667044488045 7:-0.7108913626401878 0:0.0 0:0.0 
0.8238874800082274 1:0.02098807861447306 2:-0.0393638807340273 3:-0.2534677466066008 4:0.11011010315768173 5:-0.20770144406631796 6:0.0979509897127628 7:-0.8134844954969186 0:0.0 0:0.0 
0.8238874800082274 1:-0.15148034276950575 2:-0.037868393135848846 3:-0.14299262317686653 4:0.10467921451086723 5:-0.21173804801556823 6:0.13164894549154446 7:-0.8557287266732195 0:0.0 0:0.0 
0.8238874800082274 1:-0.08046393396433801 2:-0.18143520256098067 3:0.13319518539746925 4:0.011578266279761561 5:-0.20669229307900538 6:0.12335019518781465 7:-0.8298289897020351 0:0.0 0:0.0 
0.8238874800082274 1:-0.13118994025374356 2:-0.21583141731908517 3:0.00997293234122713 4:-0.07298842836349276 5:-0.1973576464463641 6:0.11354258119249759 7:-0.6935410534070642 0:0.0 0:0.0 
0.8238874800082274 1:-0.13118994025374356 2:0.2088870605635965 3:0.14594231502397706 4:0.023215884808649768 5:-0.11536412872721782 6:0.09845394427662521 7:0.5094137200895053 0:0.0 0:0.0 
0.8238874800082274 1:-0.10582693710904079 2:0.05485183795121546 3:0.06945953726493022 4:-8.351934843858601E-4 5:-0.09896542518338856 6:0.0976995124308316 7:0.7538267718952464 0:0.0 0:0.0 
0.8238874800082274 1:-0.15655294339844633 2:0.02494208598764633 3:0.12469709897979737 4:-0.05514407995253084 5:-0.07146606077912103 6:0.10021428525014366 7:0.9627848439637349 0:0.0 0:0.0 
0.8238874800082274 1:-0.014520125788110818 2:0.2193554737508457 3:0.05246336442958648 4:-0.10945296642067581 5:-0.041948394400228364 6:0.09543621689345073 7:1.0 0:0.0 0:0.0 
0.8238874800082274 1:0.3709975220113713 2:-0.09918338466116557 3:0.11619901256212552 4:-0.07221258712823354 5:-0.015710468730101543 6:0.08411973920654645 7:1.0 0:0.0 0:0.0 
0.8238874800082274 1:0.12751269182222472 2:-0.6599912339780868 3:-0.07925697504432751 4:0.11243762686345937 5:-5.732039204129945E-4 6:0.08663451202585852 7:1.0 0:0.0 0:0.0 
0.8238874800082274 1:0.1478030943379869 2:-0.21882239251544208 3:-0.3341995675744836 4:0.21484866991767562 5:0.016077787370244408 6:0.06701928403522442 7:1.0 0:0.0 0:0.0 
0.8238874800082274 1:0.4014331257850146 2:0.1430856062437444 3:-0.2747129626507805 4:0.25441657291589553 5:0.03903597233160537 6:0.05645723819411376 7:1.0 0:0.0 0:0.0 
0.8238874800082274 1:0.1478030943379869 2:-0.03188644274313502 3:0.02696910517657087 4:0.16829819580212277 5:0.05316408615398135 6:0.026028487080437788 7:1.0 0:0.0 0:0.0 
0.8238874800082274 1:0.4927399371059446 2:0.4691019026466479 3:0.014221975550063066 4:-0.034972207835791275 5:0.05972356757151305 6:-0.0016340139319949148 7:1.0 0:0.0 0:0.0 
0.8238874800082274 1:0.5028851383638258 2:0.46461543985211257 3:-0.011272283702952544 4:-0.019455383130606994 5:0.07814057308996745 6:-0.00817242326220628 7:1.0 0:0.0 0:0.0 
0.8238874800082274 1:0.24418250628785745 2:0.295625341257947 3:0.21392700636535203 4:0.02554340851442741 5:0.0998373193171877 6:-0.030553901354083646 7:1.0 0:0.0 0:0.0 
0.8238874800082274 1:0.21881950314315468 2:0.16103145742188588 3:-0.15573975280337432 4:-0.04583398512942027 5:0.10690137622837569 6:-0.018734469103316945 7:1.0 0:0.0 0:0.0 
0.8238874800082274 1:0.015915477985532507 2:-0.14554350020469772 3:-0.2534677466066008 4:-0.04273062018838341 5:0.11875890032929838 6:-0.02049481007683539 7:1.0 0:0.0 0:0.0 
0.8238874800082274 1:-0.0500283301906947 2:-0.21882239251544208 3:-0.03676654295596815 4:-5.93522491266462E-5 5:0.1344007406326432 6:-0.02829060581670279 7:1.0 0:0.0 0:0.0 
0.8238874800082274 1:-0.11597213836692188 2:-0.26069604526443885 3:-0.07075888862665564 4:0.03485350333753798 5:0.13995107106286236 6:-0.018985946385248153 7:1.0 0:0.0 0:0.0 
0.8238874800082274 1:-0.26307755660619797 2:-0.015436079163171997 3:0.06945953726493022 4:0.07907645374731317 5:0.13692361810092465 6:-0.028542083098633993 7:0.9592644913657098 0:0.0 0:0.0 
0.8238874800082274 1:-0.3543843679271279 2:-0.07675107068848872 3:0.014221975550063066 4:0.028646773455464267 5:0.12859812245559593 6:-0.023764014741941075 7:0.9311016705815092 0:0.0 0:0.0 
0.8238874800082274 1:-0.15655294339844633 2:-0.3309839623788263 3:0.07795762368260209 4:-0.1032462365386021 5:0.13465302837947135 6:-0.02602731027932193 7:0.902435942283305 0:0.0 0:0.0 
0.8238874800082274 1:0.10214968867752193 2:-0.24723665688083277 3:0.17143657427699266 4:-0.10712544271489817 5:0.12506609400000196 6:-0.02929651494442761 7:0.8881030781342029 0:0.0 0:0.0 
0.8238874800082274 1:0.33041671697984687 2:0.09223902790567687 3:0.1034518829356177 4:-0.12264226742008244 5:0.10690137622837569 6:-0.03306867417339571 7:0.8654722400040417 0:0.0 0:0.0 
0.8238874800082274 1:0.06664148427493805 2:0.12513975506560293 3:-0.02401941332946035 4:-0.059799127364086116 5:0.10185562129181285 6:-0.03734378796622621 7:0.7822410464364488 0:0.0 0:0.0 
0.8238874800082274 1:-0.3138035628956035 2:0.14009463104738748 3:-0.18123401205638995 4:0.04804280433694461 5:0.08015887506459259 6:-0.03985856078553828 7:0.7223950522700224 0:0.0 0:0.0 
0.8238874800082274 1:-0.2580049559772574 2:0.3105802172397315 3:-0.12174740713268685 4:0.023215884808649768 5:0.07284253040657646 6:-0.039607083503607074 7:0.6597830667765764 0:0.0 0:0.0 
0.8238874800082274 1:-0.024665327045991926 2:0.3045982668470177 3:-0.2492187033977649 4:0.020112519867612914 5:0.07460854463437346 6:-0.036840833402363805 7:0.6044632402361824 0:0.0 0:0.0 
0.8238874800082274 1:0.13258529245116527 2:0.31955314282880226 3:-0.3341995675744836 4:0.04028439198435248 5:0.06905821420415433 6:-0.045642538269956026 7:0.5116768039025215 0:0.0 0:0.0 
0.8238874800082274 1:-0.42032817610335516 2:-0.10067887225934402 3:-0.10475123429734311 4:0.11476515056923701 5:0.573129132366783 6:0.00767064549945972 7:0.02737686791707142 0:0.0 0:0.0 
0.8238874800082274 1:0.0717140849038786 2:0.19243669698363347 3:0.21817604957418796 4:-0.11798722000852715 5:0.9376849265334488 6:0.020747464159882455 7:-0.07672498748167016 0:0.0 0:0.0 
0.8238874800082274 1:0.3253441163509063 2:0.3255350932215161 3:0.06945953726493022 4:-0.15755512300674707 5:1.0 6:0.022256327851469693 7:-0.1421029643021359 0:0.0 0:0.0 
0.8238874800082274 1:-0.04495572956175414 2:0.056347325549393916 3:-0.24496966018892896 4:-0.08462604689238096 5:1.0 6:0.008173600063322134 7:-0.1878675480764619 0:0.0 0:0.0 
0.8238874800082274 1:-0.12104473899586245 2:0.017464647996754047 3:-0.45742182063072573 4:-0.007817764601718786 5:1.0 6:0.002389622578904387 7:-0.18334138045042966 0:0.0 0:0.0 
0.8238874800082274 1:0.2695455094325602 2:0.22085096134902413 3:-0.18123401205638995 4:0.020112519867612914 5:1.0 6:0.006664736371734896 7:-0.12274102501299797 0:0.0 0:0.0 
0.8238874800082274 1:0.1478030943379869 2:0.12513975506560293 3:0.14594231502397706 4:0.03330182086701955 5:1.0 6:-0.018734469103316945 7:-0.07798225626667911 0:0.0 0:0.0 
0.8238874800082274 1:0.02098807861447306 2:-0.10815631025023631 3:0.21392700636535203 4:0.07286972386523946 5:1.0 6:-0.028542083098633993 7:-0.04956798172547671 0:0.0 0:0.0 
0.8238874800082274 1:-0.15148034276950575 2:-0.21882239251544208 3:0.15444040144164892 4:-0.07764347577504804 5:1.0 6:-0.023009582896147455 7:-0.05912322449154478 0:0.0 0:0.0 
0.8238874800082274 1:-0.10075433648010022 2:-0.15900288858830383 3:0.03546719159424275 4:0.04338775692538933 5:1.0 6:-0.023764014741941075 7:-0.08577732273373465 0:0.0 0:0.0 
0.8238874800082274 1:0.3811427232692524 2:0.1326171930564952 3:0.10770092614445365 4:0.1651948308610859 5:1.0 6:-0.0207462873587666 7:-0.05610577940752328 0:0.0 0:0.0 
0.8238874800082274 1:0.21881950314315468 2:-0.254714094871725 3:0.06945953726493022 4:-0.008593605836978 5:1.0 6:-0.011190150645380757 7:-0.05736304819253224 0:0.0 0:0.0 
0.8238874800082274 1:-0.009447525159170264 2:-0.254714094871725 3:-0.03676654295596815 4:-0.055919921187790045 5:1.0 6:-0.007417991416412661 7:-0.0671697447156021 0:0.0 0:0.0 
0.8238874800082274 1:0.11736749056434359 2:0.03241952397853861 3:0.0057238891323911955 4:-0.06057496859934533 5:1.0 6:-0.0054061731609630105 7:-0.08225697013570957 0:0.0 0:0.0 
0.8238874800082274 1:-0.08046393396433801 2:-0.037868393135848846 3:-0.04526462937364002 4:-0.007041923366459571 5:1.0 6:0.0013837134511795616 7:-0.17177450762834726 0:0.0 0:0.0 
0.8238874800082274 1:-0.12104473899586245 2:0.11766231707471064 3:-0.09200410467083531 4:-0.003938558425422715 5:1.0 6:-6.281048042700893E-4 7:-0.27009292661604767 0:0.0 0:0.0 
0.8238874800082274 1:-0.17684334591420853 2:0.12364426746742446 3:-0.011272283702952544 4:-0.05514407995253084 5:1.0 6:0.012951668420015054 7:-0.2914664959611999 0:0.0 0:0.0 
0.8238874800082274 1:-0.30365836163772236 2:0.13411268065467366 3:0.12894614218863332 4:-0.06910922218719669 5:1.0 6:0.013454622983877467 7:-0.3068051751383092 0:0.0 0:0.0 
0.8238874800082274 1:-0.27322275786407907 2:-0.07824655828666717 3:-0.05801175900014783 4:-0.07143674589297433 5:1.0 6:0.0013837134511795616 7:-0.35709592653866745 0:0.0 0:0.0 
0.8238874800082274 1:-0.13118994025374356 2:-0.1290931366247347 3:-0.12174740713268685 4:-0.08617772936289939 5:0.8319763606124572 6:-0.004400264033238185 7:-0.421468088331126 0:0.0 0:0.0 
0.8238874800082274 1:0.4927399371059446 2:0.0847615899147846 3:-0.18548305526522588 4:-0.03031716042423599 5:0.45379702811707157 6:-0.014710832592417646 7:-0.4005974264999773 0:0.0 0:0.0 
0.8238874800082274 1:-0.05510093081963525 2:0.10121195349474761 3:-0.028268456538296287 4:-0.007817764601718786 5:-0.8033528143275623 6:-0.018231514539454534 7:-0.23312922433678432 0:0.0 0:0.0 
0.8238874800082274 1:-0.15655294339844633 2:0.12513975506560293 3:-0.24496966018892896 4:-0.010145288307496426 5:-1.0183019746251396 6:-0.030553901354083646 7:-0.16096199607727024 0:0.0 0:0.0 
0.8238874800082274 1:-0.3138035628956035 2:0.02494208598764633 3:0.09920283972678177 4:0.02942261469072348 5:-1.0183019746251396 6:-0.02049481007683539 7:-0.10664798456488332 0:0.0 0:0.0 
0.8238874800082274 1:0.04635108175917583 2:-0.10067887225934402 3:0.24367030882720356 4:-0.08928109430393624 5:-1.0183019746251396 6:-0.0207462873587666 7:-0.041270007744417594 0:0.0 0:0.0 
0.8238874800082274 1:-0.009447525159170264 2:-0.4042628546895707 3:0.150191358232813 4:-0.2731554670603699 5:-1.0183019746251396 6:-0.02678174212511555 7:-0.06641538344459672 0:0.0 0:0.0 
0.8238874800082274 1:-0.3898925723297118 2:-0.8559001093394646 3:0.0057238891323911955 4:-0.3103958463528122 5:-1.0183019746251396 6:-0.0011310593681325021 7:-0.09080639787377047 0:0.0 0:0.0 
0.8238874800082274 1:-0.3797473710718307 2:-0.4296861438586045 3:-0.20247922810056962 4:-0.10634960147963896 5:-1.0183019746251396 6:-0.003142877623582153 7:-0.059374678248546565 0:0.0 0:0.0 
0.8238874800082274 1:-0.32902136478242516 2:-0.00945412877045817 3:-0.2534677466066008 4:0.12407524539234757 5:-1.0183019746251396 6:-0.005154695879031804 7:-0.0613863083045609 0:0.0 0:0.0 
0.8238874800082274 1:0.031133279872354168 2:0.31207570483791 3:-0.2534677466066008 4:0.3242422840892248 5:-1.0183019746251396 6:0.004149963552422832 7:0.02033616272102127 0:0.0 0:0.0 
0.8238874800082274 1:0.3557797201245496 2:0.6425784640353489 3:-0.09200410467083531 4:0.2513132079748587 5:-1.0183019746251396 6:-0.003142877623582153 7:0.1812665672021677 0:0.0 0:0.0 
0.8238874800082274 1:0.25940030817467913 2:0.5005071422083955 3:-0.21097731451824148 4:-0.005490240895941144 5:-1.0183019746251396 6:0.002389622578904387 7:0.24739890529363878 0:0.0 0:0.0 
0.8238874800082274 1:0.3557797201245496 2:0.5005071422083955 3:-0.011272283702952544 4:-0.04816150883519791 5:-1.0183019746251396 6:0.002389622578904387 7:0.27757335613385375 0:0.0 0:0.0 
0.8238874800082274 1:0.29490851257726297 2:0.3255350932215161 3:0.345647345839266 4:-0.17850283635874584 5:-1.0183019746251396 6:0.001635190733110768 7:0.3160457809551278 0:0.0 0:0.0 
0.8238874800082274 1:-0.060173531448575804 2:0.0982209782983907 3:0.09495379651794583 4:-0.32901603599903334 5:-1.0183019746251396 6:0.005155872680147657 7:0.29266058155396124 0:0.0 0:0.0 
0.8238874800082274 1:-0.09060913522221913 2:-0.10815631025023631 3:0.25641743845371134 4:-0.19014045488763406 5:-1.0183019746251396 6:0.00842507734525334 7:0.29743820293699524 0:0.0 0:0.0 
0.8238874800082274 1:-0.09060913522221913 2:-0.08123753348302408 3:0.18418370390350047 4:-0.11410801383223108 5:-1.0183019746251396 6:0.009430986472978166 7:0.28687714514292 0:0.0 0:0.0 
0.8238874800082274 1:0.036205880501294724 2:0.053356350353037006 3:-0.18123401205638995 4:-0.01790370066008857 5:-1.0183019746251396 6:0.004652918116285244 7:0.2755617260778394 0:0.0 0:0.0 
0.8238874800082274 1:-0.0500283301906947 2:-0.025904492350421193 3:-0.3214524379479758 4:0.2458823193280442 5:-1.0183019746251396 6:0.003647008988560419 7:0.2524279804336746 0:0.0 0:0.0 
0.8238874800082274 1:0.026060679243413615 2:0.10121195349474761 3:-0.3214524379479758 4:0.390188789086258 5:-1.0183019746251396 6:-0.0016340139319949148 7:0.2237622521354704 0:0.0 0:0.0 
0.8238874800082274 1:-0.1464077421405652 2:-0.08721948387573791 3:-0.26196583302427273 4:0.36225850461692627 5:-1.0183019746251396 6:-1.2515024040767663E-4 7:0.24589018275162805 0:0.0 0:0.0 
0.8238874800082274 1:-0.3696021698139496 2:-0.16648032657919612 3:-0.09625314787967124 4:0.20553857509456505 5:-1.0183019746251396 6:3.778043234547361E-4 7:0.2033944978183253 0:0.0 0:0.0 
0.8238874800082274 1:-0.126117339624803 2:-0.0737600954921318 3:0.13319518539746925 4:0.006147377632947065 5:-1.0183019746251396 6:-0.0046517413151693915 7:0.2003770527343038 0:0.0 0:0.0 
0.8238874800082274 1:0.015915477985532507 2:-0.08572399627755946 3:0.11194996935328957 4:-0.09393614171549153 5:-1.0183019746251396 6:-0.01169310520924317 7:0.1840325585291874 0:0.0 0:0.0 
0.8238874800082274 1:0.09200448741964083 2:0.1535540194309936 3:0.277662654497891 4:-0.01092112954275564 5:-1.0183019746251396 6:-0.019740378231041772 7:0.16542498051105484 0:0.0 0:0.0 
0.8238874800082274 1:0.031133279872354168 2:0.1191578046728891 3:0.2606664816625473 4:-0.01635201818957014 5:-0.7168181171655095 6:-0.021500719204560217 7:0.12192348054974494 0:0.0 0:0.0 
0.8238874800082274 1:-0.014520125788110818 2:-0.17844422736462376 3:0.17993466069466454 4:-0.06290249230512297 5:1.0 6:-0.02602731027932193 7:0.11538568286769837 0:0.0 0:0.0 
0.8238874800082274 1:0.09707708804858138 2:-0.26069604526443885 3:-0.028268456538296287 4:-0.142814139536822 5:1.0 6:-0.030302424072152438 7:0.17070550940809245 0:0.0 0:0.0 
0.8238874800082274 1:0.031133279872354168 2:-0.4162267554749984 3:-0.2492187033977649 4:-0.04428230265890184 5:1.0 6:-0.026530264843184343 7:0.18855872615521962 0:0.0 0:0.0 
0.8238874800082274 1:-0.01959272641705137 2:-0.34145237556607555 3:-0.3511957404098273 4:0.21562451115293485 5:1.0 6:-0.0129504916188992 7:0.14530867995091154 0:0.0 0:0.0 
0.8238874800082274 1:0.08693188679070027 2:0.1326171930564952 3:-0.32995052436564765 4:0.2784676512089312 5:1.0 6:-0.017225605411729707 7:0.06509493146734012 0:0.0 0:0.0 
0.8238874800082274 1:-0.0500283301906947 2:0.19243669698363347 3:-0.23222253056242118 4:0.30562209444300364 5:1.0 6:-0.01018424151765593 7:-0.0209022534272725 0:0.0 0:0.0 
0.8238874800082274 1:-0.01959272641705137 2:0.19692315977816882 3:-0.03676654295596815 4:0.1985560039772321 5:1.0 6:-0.00817242326220628 7:-0.07974243256569165 0:0.0 0:0.0 
0.8238874800082274 1:0.20867430188527358 2:0.3016072916506608 3:0.12894614218863332 4:-0.1653135353593392 5:1.0 6:0.0033955317066292124 7:-0.14361168684414663 0:0.0 0:0.0 
0.8238874800082274 1:0.08693188679070027 2:0.0982209782983907 3:0.34989638904810194 4:-0.0753159520692704 5:1.0 6:0.008173600063322134 7:-0.11343723600393169 0:0.0 0:0.0 
0.8238874800082274 1:-0.11597213836692188 2:-0.16199386378466074 3:0.3711416050922816 4:0.0030440126919102093 5:1.0 6:0.0026410998608355934 7:-0.1763006752543795 0:0.0 0:0.0 
0.8238874800082274 1:-0.09060913522221913 2:-0.03487741793949193 3:0.1884327471123364 4:-0.04971319130571634 5:1.0 6:0.002389622578904387 7:-0.19817715211353534 0:0.0 0:0.0 
0.8238874800082274 1:0.06664148427493805 2:0.008491722407683307 3:0.08220666689143803 4:-0.08772941183341781 5:1.0 6:0.005910304525941276 7:-0.10589362329387794 0:0.0 0:0.0 
0.8238874800082274 1:0.04127848113023528 2:-0.3668756647351093 3:0.09920283972678177 4:-0.14048661583104435 5:1.0 6:-0.0016340139319949148 7:0.07339290544839923 0:0.0 0:0.0 
0.8238874800082274 1:-0.11597213836692188 2:-0.4042628546895707 3:0.15868944465048487 4:-0.11333217259697188 5:1.0 6:-0.0021369684958573274 7:0.21772736196742742 0:0.0 0:0.0 
0.8238874800082274 1:-0.2377145534614952 2:-0.25770507006808197 3:0.05246336442958648 4:-0.04428230265890184 5:1.0 6:0.003647008988560419 7:0.34093970289830516 0:0.0 0:0.0 
0.8238874800082274 1:-0.12104473899586245 2:-0.13058862422291315 3:-0.053762715791311894 4:0.027870932220205053 5:1.0 6:8.807588873171488E-4 7:0.4797421767632939 0:0.0 0:0.0 
0.8238874800082274 1:0.051423682388116385 2:-0.24723665688083277 3:-0.09625314787967124 4:0.13183365774493971 5:1.0 6:0.003647008988560419 7:0.5546753963498277 0:0.0 0:0.0 
0.8238874800082274 1:0.3709975220113713 2:-0.00945412877045817 3:-0.09200410467083531 4:0.20631441632982428 5:1.0 6:0.0011322361692483551 7:0.5227407692106002 0:0.0 0:0.0 
0.8238874800082274 1:0.5637563459111123 2:0.2836614404725193 3:-0.14724166638570246 4:0.08761070733516452 5:1.0 6:-3.76627522338883E-4 7:0.3794121277195792 0:0.0 0:0.0 
0.8238874800082274 1:0.18838389936951136 2:-0.1874171529536945 3:-0.45317277742188977 4:0.007699060103465493 5:1.0 6:0.00842507734525334 7:0.1812665672021677 0:0.0 0:0.0 
0.8238874800082274 1:-0.15655294339844633 2:-0.3623892019405739 3:-0.4659199070483976 4:-0.10247039530334288 5:1.0 6:-0.0011310593681325021 7:-0.005815028007165025 0:0.0 0:0.0 
0.8238874800082274 1:-0.09568173585115967 2:0.04438342476396626 3:0.07370858047376616 4:-0.153675916830451 5:1.0 6:-0.004400264033238185 7:-0.12978173020904812 0:0.0 0:0.0 
0.8238874800082274 1:-0.17177074528526798 2:0.030924036380360155 3:0.29040978412439883 4:0.010802425044502349 5:0.8150730815749716 6:0.012700191138083848 7:0.08194233318646013 0:0.0 0:0.0 
0.8238874800082274 1:-0.07031873270645692 2:-0.010949616368636627 3:0.04821432122075055 4:-0.29255149794185026 5:1.0 6:0.01949007775022642 7:0.07037546036437774 0:0.0 0:0.0 
0.8238874800082274 1:-0.16162554402738688 2:-0.15002996299923307 3:-0.13024549355035872 4:-0.41978946052436134 5:1.0 6:0.011945759292290229 7:0.0027343997308958774 0:0.0 0:0.0 
0.8238874800082274 1:-0.2681501572351385 2:-0.037868393135848846 3:0.02696910517657087 4:-0.13117652100793378 5:1.0 6:0.009430986472978166 7:-0.05308833432350179 0:0.0 0:0.0 
0.8238874800082274 1:-0.11089953773798134 2:-0.010949616368636627 3:0.0014748459235552603 4:0.09071407227620137 5:0.9624091257226067 6:0.005407349962078863 7:-0.09608692677080809 0:0.0 0:0.0 
0.8238874800082274 1:0.051423682388116385 2:0.12962621786013828 3:-0.26196583302427273 4:0.05347369298375911 5:1.0 6:0.012448713856152642 7:0.04497863090719681 0:0.0 0:0.0 
0.8238874800082274 1:0.3101263144640847 2:0.12962621786013828 3:0.07795762368260209 4:0.011578266279761561 5:1.0 6:0.010688372882634196 7:0.029388497973085754 0:0.0 0:0.0 
0.8238874800082274 1:0.29490851257726297 2:0.09672549070021225 3:-0.053762715791311894 4:-5.93522491266462E-5 5:1.0 6:0.01395757754773988 7:-0.01461590950222772 0:0.0 0:0.0 
0.8238874800082274 1:0.061568883645997496 2:-0.06927363269759643 3:0.10770092614445365 4:-0.09859118912704681 5:1.0 6:0.014712009393533499 7:0.005751844814917373 0:0.0 0:0.0 
0.8238874800082274 1:0.06664148427493805 2:-0.0498322939212765 3:0.23092317920069574 4:-0.13117652100793378 5:1.0 6:0.01747825949477677 7:-0.013358640717218763 0:0.0 0:0.0 
0.8238874800082274 1:-0.03481052830387303 2:0.1535540194309936 3:0.08645571010027396 4:-0.19479550229918935 5:1.0 6:0.005910304525941276 7:-0.03699529387538714 0:0.0 0:0.0 
0.8238874800082274 1:0.08185928616175972 2:0.12513975506560293 3:0.21392700636535203 4:-0.1761753126529682 5:1.0 6:0.0038984862704916252 7:-0.03976128520240685 0:0.0 0:0.0 
0.8238874800082274 1:6.976760987108447E-4 2:0.11317585428017526 3:-0.2534677466066008 4:-0.09859118912704681 5:1.0 6:3.778043234547361E-4 7:-0.05610577940752328 0:0.0 0:0.0 
0.8238874800082274 1:-0.060173531448575804 2:0.014473672800397134 3:-0.3511957404098273 4:-0.021007065601125422 5:0.8672966451683971 6:-0.0018854912139261212 7:-0.10212181693885108 0:0.0 0:0.0 
0.8238874800082274 1:0.010842877356591953 2:-0.22779531810451284 3:0.1034518829356177 4:0.1651948308610859 5:0.9048875194457903 6:-0.005154695879031804 7:-0.16146490359127383 0:0.0 0:0.0 
0.8238874800082274 1:-0.1920611478010302 2:-0.2696689708535096 3:0.00997293234122713 4:0.17372908444893725 5:1.0 6:-0.009178332389931106 7:-0.15744164347924516 0:0.0 0:0.0 
0.8238874800082274 1:-0.23264195283255462 2:-0.2457411692826543 3:-0.14724166638570246 4:0.314156348030855 5:1.0 6:-0.010435718799587138 7:-0.13807970419010723 0:0.0 0:0.0 
0.8238874800082274 1:-0.3898925723297118 2:0.03690598677307398 3:0.1884327471123364 4:0.42354996220240415 5:1.0 6:-0.012196059773105582 7:-0.09357238920079017 0:0.0 0:0.0 
0.8238874800082274 1:-0.40511037421653345 2:0.3928320351395466 3:0.1034518829356177 4:0.2249346059760454 5:1.0 6:-0.009429809671862311 7:-0.046801990398457005 0:0.0 0:0.0 
0.8238874800082274 1:-0.18698854717208965 2:0.4257327622994727 3:0.12894614218863332 4:0.09071407227620137 5:1.0 6:-0.009681286953793519 7:-0.017884808343251006 0:0.0 0:0.0 
0.8238874800082274 1:-0.11089953773798134 2:0.2522562009107717 3:0.1969308335300083 4:0.08838654857042373 5:1.0 6:-0.012196059773105582 7:-0.039006923931401476 0:0.0 0:0.0 
0.8238874800082274 1:-0.2529323553483169 2:0.06083378834392929 3:-0.002774197285280675 4:0.08295565992360925 5:1.0 6:-0.003394354905513359 7:-0.060129039519551945 0:0.0 0:0.0 
0.8238874800082274 1:-0.2782953584930196 2:-0.26069604526443885 3:-0.14299262317686653 4:0.0030440126919102093 5:1.0 6:0.0011322361692483551 7:-0.09256657417278301 0:0.0 0:0.0 
0.8238874800082274 1:0.20867430188527358 2:-0.16648032657919612 3:-0.10475123429734311 4:-0.015576176954310926 5:1.0 6:0.0013837134511795616 7:-0.10715089207888691 0:0.0 0:0.0 
0.8238874800082274 1:0.38621532389819296 2:0.16103145742188588 3:0.30315691375090664 4:0.014681631220798417 5:1.0 6:0.012197236574221434 7:-0.05862031697754119 0:0.0 0:0.0 
0.8238874800082274 1:0.3101263144640847 2:-0.22330885530997746 3:0.40088490755413314 4:0.011578266279761561 5:1.0 6:0.00565882724401007 7:-0.05183106553849283 0:0.0 0:0.0 
0.8238874800082274 1:0.13765789308010581 2:-0.2502276320771897 3:0.13744422860630517 4:-0.1808303600645235 5:0.9212862229896196 6:0.012700191138083848 7:-0.0699357360426218 0:0.0 0:0.0 
0.8238874800082274 1:-0.7196116132108478 2:-0.359398226744217 3:-0.2492187033977649 4:0.03718102704331562 5:-0.28565835783621396 6:0.03483019194803001 7:-0.18736464056245833 0:0.0 0:0.0 
0.8238874800082274 1:-0.9022252358527078 2:-0.7228017131015819 3:0.018471018758899 4:0.09304159598197902 5:-0.5207905378800427 6:0.03734496476734207 7:-0.20974402493561775 0:0.0 0:0.0 
0.8238874800082274 1:-0.3340939654113657 2:-0.857395596937643 3:0.14594231502397706 4:0.15278137109693848 5:-0.9973620916384038 6:0.04413485137948465 7:-0.2019489584685622 0:0.0 0:0.0 
0.8238874800082274 1:0.18838389936951136 2:-0.1874171529536945 3:0.15444040144164892 4:0.08916238980568295 5:-1.0183019746251396 6:0.04162007856017258 7:-0.1476349469561753 0:0.0 0:0.0 
0.8238874800082274 1:0.4369413301875985 2:0.708379918355201 3:-0.11324932071501498 4:-0.029541319188976775 5:-1.0183019746251396 6:0.045895192353003086 7:-0.15417274463822186 0:0.0 0:0.0 
0.8238874800082274 1:0.34056191823772797 2:0.21636449855448878 3:-0.26196583302427273 4:-0.0869535705981586 5:-1.0183019746251396 6:0.052182124401283246 7:-0.1856044642634458 0:0.0 0:0.0 
0.8238874800082274 1:0.203601701256333 2:0.07279768912935694 3:-0.11324932071501498 4:-0.14436582200734044 5:-1.0183019746251396 6:0.055954283630251345 7:-0.2537484324109312 0:0.0 0:0.0 
0.8238874800082274 1:0.7108617641503884 2:0.08177061471842768 3:0.1034518829356177 4:-0.12496979112586008 5:-0.7960364696695462 6:0.06500746577977477 7:-0.32013222425940413 0:0.0 0:0.0 
0.8238874800082274 1:0.4369413301875985 2:-0.13507508701744853 3:0.05671240763842242 4:-0.11643553753800873 5:-0.5384506801580127 6:0.07230030695577976 7:-0.30781099016631636 0:0.0 0:0.0 
0.8238874800082274 1:-0.014520125788110818 2:-0.10217435985752248 3:-0.38943712928935076 4:-0.08074684071608489 5:-0.9968575161447476 6:0.08261087551495921 7:0.06735801528035623 0:0.0 0:0.0 
0.8238874800082274 1:-0.07539133333539746 2:-0.15002996299923307 3:-0.308705308321468 4:0.11011010315768173 5:-1.0183019746251396 6:0.07230030695577976 7:0.056042596215275624 0:0.0 0:0.0 
0.8238874800082274 1:-0.14133514151162466 2:-0.11114728544659322 3:0.1756856174858286 4:0.19933184521249134 5:-1.0183019746251396 6:0.06349860208818754 7:0.05302515113125413 0:0.0 0:0.0 
0.8238874800082274 1:-0.03988312893281359 2:-0.03637290553767039 3:0.4816167285220159 4:0.0697663589242026 5:-1.0183019746251396 6:0.055954283630251345 7:0.08470832451347983 0:0.0 0:0.0 
0.8238874800082274 1:-0.15148034276950575 2:-0.09469692186663019 3:0.23942126561836763 4:-0.019455383130606994 5:-1.0183019746251396 6:0.045643715071071886 7:0.07439872047640639 0:0.0 0:0.0 
0.8238874800082274 1:-0.21742415094573297 2:-0.09469692186663019 3:0.13744422860630517 4:-0.03186884289475442 5:-1.0183019746251396 6:0.03483019194803001 7:0.07490162799040997 0:0.0 0:0.0 
0.8238874800082274 1:-0.22249675157467352 2:-0.1395615498119839 3:0.0907047533091099 4:-0.052816556246753195 5:-1.0183019746251396 6:0.02502257795271296 7:0.08294814821446729 0:0.0 0:0.0 
0.8238874800082274 1:-0.09060913522221913 2:-0.15002996299923307 3:0.03546719159424275 4:-0.003162717190163502 5:-1.0183019746251396 6:0.014712009393533499 7:0.05906004129929712 0:0.0 0:0.0 
0.8238874800082274 1:-0.11089953773798134 2:-0.13657057461562697 3:-0.019770370120624416 4:0.005371536397687851 5:-1.0183019746251396 6:0.005155872680147657 7:0.07641035053242072 0:0.0 0:0.0 
0.8238874800082274 1:-0.11597213836692188 2:-0.0737600954921318 3:0.0014748459235552603 4:0.03873270951383405 5:-1.0183019746251396 6:-0.0054061731609630105 7:0.09753246612057119 0:0.0 0:0.0 
0.8238874800082274 1:-0.01959272641705137 2:0.02494208598764633 3:0.1034518829356177 4:0.04261191569013012 5:-1.0183019746251396 6:-0.013453446182761614 7:0.11639149789570553 0:0.0 0:0.0 
0.8238874800082274 1:-0.009447525159170264 2:0.06980671393300003 3:-0.12174740713268685 4:-0.08540188812764017 5:-0.740785453114183 6:-0.018734469103316945 7:0.12695255568978078 0:0.0 0:0.0 
0.7860572291434811 1:0.08185928616175972 2:0.20290511017088267 3:-0.47441799346606944 4:-0.20798480329859595 5:0.5428546027474058 6:-0.02250662833228504 7:0.14480577243690795 0:0.0 0:0.0 
0.8238874800082274 1:-0.024665327045991926 2:0.20739157296541802 3:-0.831337623008288 4:-0.22350162800378023 5:0.707850789173011 6:-0.022758105614216248 7:0.14782321752092945 0:0.0 0:0.0 
0.8238874800082274 1:0.061568883645997496 2:0.11766231707471064 3:0.4646205556866722 4:-0.023334589306903065 5:0.7212220397549026 6:-0.04136742447712552 7:0.19911978394929486 0:0.0 0:0.0 
0.8238874800082274 1:0.051423682388116385 2:0.045878912362144725 3:0.4688695988955081 4:-0.0753159520692704 5:0.428063677940601 6:-0.03985856078553828 7:0.21345264809839695 0:0.0 0:0.0 
0.8238874800082274 1:0.1478030943379869 2:-0.20386751653365753 3:-0.767601974875749 4:0.05114616927798147 5:0.2554988591101516 6:-3.76627522338883E-4 7:0.15838427531500468 0:0.0 0:0.0 
0.4514431795160406 1:0.1630208962248086 2:-0.07824655828666717 3:-0.20247922810056962 4:-0.03264468413001363 5:0.833490087093426 6:-0.01772855997559212 7:-0.10011018688283675 0:0.0 0:0.0 
0.8238874800082274 1:-0.3898925723297118 2:-0.037868393135848846 3:0.06521049405609429 4:0.17760829062523334 5:0.573129132366783 6:-0.01244753705503679 7:-0.1529154758532129 0:0.0 0:0.0 
0.8238874800082274 1:-0.05510093081963525 2:-0.3833260283150723 3:-0.13449453675919465 4:0.29941536456092993 5:-1.0183019746251396 6:-0.015213787156280058 7:0.01103237371195499 0:0.0 0:0.0 
0.8238874800082274 1:-0.00437492453022971 2:-0.27265994604986654 3:0.022720061967734937 4:0.20631441632982428 5:-1.0183019746251396 6:-0.02602731027932193 7:0.023856515319046347 0:0.0 0:0.0 
0.8238874800082274 1:0.10722228930646249 2:0.0847615899147846 3:0.060961450847258354 4:0.07364556510049867 5:-0.964060109057089 6:-0.019237423667179357 7:0.0394466482531574 0:0.0 0:0.0 
0.8238874800082274 1:0.5028851383638258 2:0.12364426746742446 3:0.1034518829356177 4:-0.01092112954275564 5:0.36978520842330015 6:-0.003897309469375772 7:-0.35282121266963695 0:0.0 0:0.0 
0.8238874800082274 1:0.11229488993540304 2:-0.01394059156499354 3:0.07370858047376616 4:0.07674893004153553 5:-0.9655738355380579 6:-0.006663559570619042 7:-0.02894877365132982 0:0.0 0:0.0 
0.8238874800082274 1:0.04127848113023528 2:-0.15002996299923307 3:0.02696910517657087 4:0.05657705792479597 5:-1.0183019746251396 6:-0.01169310520924317 7:-0.07974243256569165 0:0.0 0:0.0 
0.8238874800082274 1:-0.01959272641705137 2:0.0398969619694309 3:-0.00702324049411661 4:0.19079759162463997 5:-1.0183019746251396 6:-0.003394354905513359 7:-0.10363053948086183 0:0.0 0:0.0 
0.8238874800082274 1:0.061568883645997496 2:0.2702020520889132 3:-0.4276785181688742 4:0.2947603171493747 5:-1.0183019746251396 6:0.006664736371734896 7:-0.05912322449154478 0:0.0 0:0.0 
0.8238874800082274 1:-0.2580049559772574 2:-0.06179619470670415 3:0.031218148385406805 4:0.03718102704331562 5:0.5897801236574404 6:0.016723827648983152 7:0.43045724039094285 0:0.0 0:0.0 
0.8238874800082274 1:-0.2377145534614952 2:-0.3893079787077861 3:0.08220666689143803 4:0.01778499616183527 5:0.5428546027474058 6:0.015466441239327118 7:0.4633976825581775 0:0.0 0:0.0 
0.8238874800082274 1:0.06664148427493805 2:-0.6076491680418408 3:0.2479193520360395 4:-0.01790370066008857 5:0.4040963419919275 6:0.013454622983877467 7:0.504887552463473 0:0.0 0:0.0 
0.8238874800082274 1:0.22389210377209523 2:-0.2502276320771897 3:0.1884327471123364 4:0.01545747245605763 5:0.1270843959746271 6:0.01395757754773988 7:0.5227407692106002 0:0.0 0:0.0 
0.8238874800082274 1:0.45215913207442016 2:0.018960135594932506 3:0.09920283972678177 4:0.030198455925982696 5:-0.6005134658777358 6:-0.0011310593681325021 7:0.07691325804642431 0:0.0 0:0.0 
0.8238874800082274 1:0.42172352830077686 2:0.11168036668199681 3:0.04396527801191461 4:-0.08229852318660331 5:-1.0183019746251396 6:-0.004903218597100597 7:0.2099322955003719 0:0.0 0:0.0 
0.8238874800082274 1:0.30505371383514407 2:0.14159011864556595 3:-0.03251749974713222 4:-0.10479791900912053 5:-1.0183019746251396 6:0.0031440544246980062 7:0.34320278671132126 0:0.0 0:0.0 
0.8238874800082274 1:0.1934564999984519 2:-0.01394059156499354 3:-0.02401941332946035 4:0.09614496092301587 5:-0.7478495100253709 6:0.008676554627184547 7:0.38871591672864547 0:0.0 0:0.0 
0.8238874800082274 1:0.10722228930646249 2:0.04288793716578781 3:0.21392700636535203 4:-0.01635201818957014 5:0.8319763606124572 6:1.2632704152352973E-4 7:0.2524279804336746 0:0.0 0:0.0 
0.8238874800082274 1:0.06664148427493805 2:0.02045562319311096 3:-0.019770370120624416 4:0.1651948308610859 5:1.0 6:0.005155872680147657 7:0.23608348622855818 0:0.0 0:0.0 
0.8238874800082274 1:0.12751269182222472 2:0.08924805270931996 3:0.16718753106815673 4:0.4126881849087752 5:1.0 6:1.2632704152352973E-4 7:0.24287273766760653 0:0.0 0:0.0 
0.8238874800082274 1:0.051423682388116385 2:0.06232927594210774 3:0.3116550001685785 4:0.2590716203274508 5:1.0 6:8.807588873171488E-4 7:0.2539367029756854 0:0.0 0:0.0 
0.8238874800082274 1:-0.060173531448575804 2:0.030924036380360155 3:-0.23222253056242118 4:-0.19479550229918935 5:1.0 6:-0.003394354905513359 7:0.2501648966206585 0:0.0 0:0.0 
0.8238874800082274 1:-0.1464077421405652 2:0.009987210005861764 3:-0.3511957404098273 4:-0.42677203164169425 5:1.0 6:-0.004903218597100597 7:0.21672154693942025 0:0.0 0:0.0 
0.8238874800082274 1:-0.16162554402738688 2:0.005500747211326394 3:0.31590404337741446 4:0.2249346059760454 5:0.6225775307450989 6:3.778043234547361E-4 7:-0.24897081102789717 0:0.0 0:0.0 
0.8238874800082274 1:-0.22249675157467352 2:-0.06179619470670415 3:0.014221975550063066 4:0.010026583809243135 5:0.43765061232007046 6:8.807588873171488E-4 7:-0.496149854160658 0:0.0 0:0.0 
0.8238874800082274 1:-0.05510093081963525 2:-0.0019766907795658885 3:0.00997293234122713 4:0.11166178562820016 5:0.360702849537487 6:8.807588873171488E-4 7:-0.601006070830405 0:0.0 0:0.0 
0.8238874800082274 1:0.10214968867752193 2:-0.0393638807340273 3:-0.03676654295596815 4:-0.005490240895941144 5:0.33850152781661047 6:-0.003897309469375772 7:-0.5647967298221471 0:0.0 0:0.0 
0.8238874800082274 1:0.1833112987405708 2:0.07578866432571385 3:-0.6911191971167021 4:0.05657705792479597 5:0.3591891230565182 6:0.014712009393533499 7:-0.16045908856326666 0:0.0 0:0.0 
0.8238874800082274 1:0.10722228930646249 2:0.017464647996754047 3:-0.572145987269296 4:0.036405185808056406 5:-0.4171002739336762 6:0.0033955317066292124 7:0.2468959977796352 0:0.0 0:0.0 
0.8238874800082274 1:-0.07539133333539746 2:0.006996234809504852 3:-0.4786670366749054 4:-0.061350809834604544 5:-0.4254257695790049 6:6.292816053859424E-4 7:0.29743820293699524 0:0.0 0:0.0 
0.8238874800082274 1:-0.05510093081963525 2:0.027933061184003242 3:0.3541454322569379 4:-0.04971319130571634 5:-0.5500559165121073 6:0.004149963552422832 7:0.23407185617254386 0:0.0 0:0.0 
0.8238874800082274 1:0.22389210377209523 2:0.0294285487821817 3:0.14594231502397706 4:0.2652783502095245 5:0.32361655075375007 6:-0.0021369684958573274 7:-0.5157632472067978 0:0.0 0:0.0 
0.8238874800082274 1:0.2391099056589169 2:0.05933830074575083 3:-0.03251749974713222 4:-0.08850525306867703 5:0.21059164017474225 6:-0.007417991416412661 7:-0.6917808771080517 0:0.0 0:0.0 
0.8238874800082274 1:0.249255106916798 2:0.06532025113846465 3:-0.019770370120624416 4:-0.014800335719051712 5:0.11068569243079783 6:3.778043234547361E-4 7:-0.6945468684350714 0:0.0 0:0.0 
0.8238874800082274 1:0.3101263144640847 2:-0.09021045907209482 3:0.04821432122075055 4:0.01545747245605763 5:0.09781901734256256 6:0.002389622578904387 7:-0.6789567355009604 0:0.0 0:0.0 
0.8238874800082274 1:0.13258529245116527 2:-0.5777394160782716 3:0.11194996935328957 4:-0.055919921187790045 5:0.10917196594982898 6:0.013454622983877467 7:-0.6113156748674785 0:0.0 0:0.0 
0.8238874800082274 1:-0.3442391666692468 2:-0.35491176394968166 3:0.04821432122075055 4:-0.11333217259697188 5:0.08116802605190516 6:0.01596939580318953 7:-0.7807955070866858 0:0.0 0:0.0 
0.8238874800082274 1:-0.602941798745215 2:-0.18592166535551605 3:-0.03251749974713222 4:-0.142814139536822 5:0.04736146797693407 6:0.015214963957395912 7:-0.686500348211014 0:0.0 0:0.0 
0.8238874800082274 1:-0.501489786166404 2:0.0010142844167910247 3:0.21392700636535203 4:-0.06833338095193747 5:-0.005618958856975844 6:0.014460532111602293 7:-0.5942168193913566 0:0.0 0:0.0 
0.8238874800082274 1:0.12244009119328415 2:-0.14105703741016234 3:-0.16848688242988213 4:0.15588473603797534 5:-0.2596727199129153 6:-0.014710832592417646 7:-0.6228825476895609 0:0.0 0:0.0 
0.8238874800082274 1:0.22389210377209523 2:-0.28611933443347265 3:-0.1982301848917337 4:0.2249346059760454 5:-0.24680604482468005 6:-0.0169741281297985 7:-0.6077953222694534 0:0.0 0:0.0 
